<?xml version="1.0"?>
<opencv_storage>
<cascade>
  <stageType>BOOST</stageType>
  <featureType>HAAR</featureType>
  <height>24</height>
  <width>24</width>
  <stageParams>
    <boostType>GAB</boostType>
    <minHitRate>9.9500000476837158e-01</minHitRate>
    <maxFalseAlarm>5.0000000000000000e-01</maxFalseAlarm>
    <weightTrimRate>9.4999999999999996e-01</weightTrimRate>
    <maxDepth>1</maxDepth>
    <maxWeakCount>100</maxWeakCount></stageParams>
  <featureParams>
    <maxCatCount>0</maxCatCount>
    <featSize>1</featSize>
    <mode>BASIC</mode></featureParams>
  <stageNum>23</stageNum>
  <stages>
    <!-- stage 0 -->
    <_>
      <maxWeakCount>5</maxWeakCount>
      <stageThreshold>-7.4754118919372559e-01</stageThreshold>
      <weakClassifiers>
        <_>
          <internalNodes>
            0 -1 14 6.5272450447082520e-02</internalNodes>
          <leafValues>
            -5.8089369535446167e-01 7.3755657672882080e-01</leafValues></_>
        <_>
          <internalNodes>
            0 -1 11 6.7189604043960571e-02</internalNodes>
          <leafValues>
            -3.5302963852882385e-01 8.3503317832946777e-01</leafValues></_>
        <_>
          <internalNodes>
            0 -1 81 -1.1244809627532959e-01</internalNodes>
          <leafValues>
            7.4720740318298340e-01 -4.1387629508972168e-01</leafValues></_>
        <_>
          <internalNodes>
            0 -1 208 5.4397882195189595e-04</internalNodes>
          <leafValues>
            3.4043371677398682e-01 -9.1825276613235474e-01</leafValues></_>
        <_>
          <internalNodes>
            0 -1 194 4.3464535847306252e-03</internalNodes>
          <leafValues>
            3.0125862360000610e-01 -9.0125894546508789e-01</leafValues></_></weakClassifiers></_>
    <!-- stage 1 -->
    <_>
      <maxWeakCount>7</maxWeakCount>
      <stageThreshold>-7.2374200820922852e-01</stageThreshold>
      <weakClassifiers>
        <_>
          <internalNodes>
            0 -1 170 -3.9931599050760269e-02</internalNodes>
          <leafValues>
            6.2516295909881592e-01 -3.8888889551162720e-01</leafValues></_>
        <_>
          <internalNodes>
            0 -1 42 2.0653046667575836e-02</internalNodes>
          <leafValues>
            -6.3273227214813232e-01 4.0805163979530334e-01</leafValues></_>
        <_>
          <internalNodes>
            0 -1 221 4.3422949966043234e-04</internalNodes>
          <leafValues>
            2.4313776195049286e-01 -8.5730350017547607e-01</leafValues></_>
        <_>
          <internalNodes>
            0 -1 81 -1.2614403665065765e-01</internalNodes>
          <leafValues>
            5.2592390775680542e-01 -4.2267286777496338e-01</leafValues></_>
        <_>
          <internalNodes>
            0 -1 221 -9.1527425684034824e-04</internalNodes>
          <leafValues>
            -8.1919163465499878e-01 2.7108222246170044e-01</leafValues></_>
        <_>
          <internalNodes>
            0 -1 38 1.7108505126088858e-03</internalNodes>
          <leafValues>
            1.3394841551780701e-01 -8.8677865266799927e-01</leafValues></_>
        <_>
          <internalNodes>
            0 -1 38 -1.9965616520494223e-03</internalNodes>
          <leafValues>
            -8.1655579805374146e-01 2.3526005446910858e-01</leafValues></_></weakClassifiers></_>
    <!-- stage 2 -->
    <_>
      <maxWeakCount>5</maxWeakCount>
      <stageThreshold>-4.6129164099693298e-01</stageThreshold>
      <weakClassifiers>
        <_>
          <internalNodes>
            0 -1 159 -3.0423525720834732e-02</internalNodes>
          <leafValues>
            6.1421877145767212e-01 -5.6943023204803467e-01</leafValues></_>
        <_>
          <internalNodes>
            0 -1 105 6.0668252408504486e-03</internalNodes>
          <leafValues>
            -3.1542629003524780e-01 6.7235487699508667e-01</leafValues></_>
        <_>
          <internalNodes>
            0 -1 26 1.2596973683685064e-03</internalNodes>
          <leafValues>
            2.3495757579803467e-01 -9.0873622894287109e-01</leafValues></_>
        <_>
          <internalNodes>
            0 -1 24 -3.9215956348925829e-05</internalNodes>
          <leafValues>
            2.2403490543365479e-01 -8.3220636844635010e-01</leafValues></_>
        <_>
          <internalNodes>
            0 -1 47 1.9132586894556880e-03</internalNodes>
          <leafValues>
            1.2048506736755371e-01 -9.1319400072097778e-01</leafValues></_></weakClassifiers></_>
    <!-- stage 3 -->
    <_>
      <maxWeakCount>8</maxWeakCount>
      <stageThreshold>-1.0664745569229126e+00</stageThreshold>
      <weakClassifiers>
        <_>
          <internalNodes>
            0 -1 47 -1.9468758255243301e-03</internalNodes>
          <leafValues>
            -7.4123060703277588e-01 3.8353037834167480e-01</leafValues></_>
        <_>
          <internalNodes>
            0 -1 32 1.3314139796420932e-03</internalNodes>
          <leafValues>
            2.0826157927513123e-01 -8.6125922203063965e-01</leafValues></_>
        <_>
          <internalNodes>
            0 -1 28 -2.1967072971165180e-03</internalNodes>
          <leafValues>
            -8.0195540189743042e-01 2.2597898542881012e-01</leafValues></_>
        <_>
          <internalNodes>
            0 -1 172 -3.3300459384918213e-02</internalNodes>
          <leafValues>
            4.0769967436790466e-01 -4.9107569456100464e-01</leafValues></_>
        <_>
          <internalNodes>
            0 -1 113 -8.9167281985282898e-02</internalNodes>
          <leafValues>
            5.6807690858840942e-01 -3.6840614676475525e-01</leafValues></_>
        <_>
          <internalNodes>
            0 -1 90 1.5682546421885490e-02</internalNodes>
          <leafValues>
            -2.2798167169094086e-01 8.2510477304458618e-01</leafValues></_>
        <_>
          <internalNodes>
            0 -1 217 5.1576335681602359e-04</internalNodes>
          <leafValues>
            2.5905138254165649e-01 -8.3953040838241577e-01</leafValues></_>
        <_>
          <internalNodes>
            0 -1 218 -1.2396486708894372e-03</internalNodes>
          <leafValues>
            -9.0376275777816772e-01 1.9808654487133026e-01</leafValues></_></weakClassifiers></_>
    <!-- stage 4 -->
    <_>
      <maxWeakCount>8</maxWeakCount>
      <stageThreshold>-9.8849505186080933e-01</stageThreshold>
      <weakClassifiers>
        <_>
          <internalNodes>
            0 -1 207 1.0771063389256597e-03</internalNodes>
          <leafValues>
            3.0334141850471497e-01 -8.8528680801391602e-01</leafValues></_>
        <_>
          <internalNodes>
            0 -1 9 2.2968582808971405e-02</internalNodes>
          <leafValues>
            -3.0608361959457397e-01 6.7701196670532227e-01</leafValues></_>
        <_>
          <internalNodes>
            0 -1 207 -1.2806926388293505e-03</internalNodes>
          <leafValues>
            -8.7500089406967163e-01 2.4505040049552917e-01</leafValues></_>
        <_>
          <internalNodes>
            0 -1 86 -2.8705991804599762e-02</internalNodes>
          <leafValues>
            4.7967374324798584e-01 -4.2510381340980530e-01</leafValues></_>
        <_>
          <internalNodes>
            0 -1 65 -9.0979179367423058e-03</internalNodes>
          <leafValues>
            5.5214643478393555e-01 -2.9575669765472412e-01</leafValues></_>
        <_>
          <internalNodes>
            0 -1 37 -1.4642311725765467e-03</internalNodes>
          <leafValues>
            -8.7951612472534180e-01 2.5585934519767761e-01</leafValues></_>
        <_>
          <internalNodes>
            0 -1 162 -4.9179513007402420e-03</internalNodes>
          <leafValues>
            2.4689003825187683e-01 -5.5516499280929565e-01</leafValues></_>
        <_>
          <internalNodes>
            0 -1 35 -1.2904531322419643e-03</internalNodes>
          <leafValues>
            -8.9910095930099487e-01 1.7593602836132050e-01</leafValues></_></weakClassifiers></_>
    <!-- stage 5 -->
    <_>
      <maxWeakCount>9</maxWeakCount>
      <stageThreshold>-1.3943302631378174e+00</stageThreshold>
      <weakClassifiers>
        <_>
          <internalNodes>
            0 -1 3 1.5822977293282747e-03</internalNodes>
          <leafValues>
            3.0003812909126282e-01 -7.7168947458267212e-01</leafValues></_>
        <_>
          <internalNodes>
            0 -1 158 -5.9676006436347961e-02</internalNodes>
          <leafValues>
            4.5014765858650208e-01 -4.0047338604927063e-01</leafValues></_>
        <_>
          <internalNodes>
            0 -1 3 -1.3317794073373079e-03</internalNodes>
          <leafValues>
            -8.9250707626342773e-01 1.9397568702697754e-01</leafValues></_>
        <_>
          <internalNodes>
            0 -1 191 3.8781962939538062e-04</internalNodes>
          <leafValues>
            1.9588784873485565e-01 -8.8733309507369995e-01</leafValues></_>
        <_>
          <internalNodes>
            0 -1 11 8.3617210388183594e-02</internalNodes>
          <leafValues>
            -2.9147037863731384e-01 6.1385017633438110e-01</leafValues></_>
        <_>
          <internalNodes>
            0 -1 35 1.1565382592380047e-03</internalNodes>
          <leafValues>
            1.9037248194217682e-01 -8.0570030212402344e-01</leafValues></_>
        <_>
          <internalNodes>
            0 -1 94 -1.1920662596821785e-02</internalNodes>
          <leafValues>
            6.7667943239212036e-01 -2.5519287586212158e-01</leafValues></_>
        <_>
          <internalNodes>
            0 -1 197 5.2276207134127617e-04</internalNodes>
          <leafValues>
            1.9190998375415802e-01 -7.8982365131378174e-01</leafValues></_>
        <_>
          <internalNodes>
            0 -1 71 -1.2051504105329514e-01</internalNodes>
          <leafValues>
            3.2384908199310303e-01 -4.4765010476112366e-01</leafValues></_></weakClassifiers></_>
    <!-- stage 6 -->
    <_>
      <maxWeakCount>11</maxWeakCount>
      <stageThreshold>-1.1889173984527588e+00</stageThreshold>
      <weakClassifiers>
        <_>
          <internalNodes>
            0 -1 197 -5.8486114721745253e-04</internalNodes>
          <leafValues>
            -7.8084290027618408e-01 3.0047574639320374e-01</leafValues></_>
        <_>
          <internalNodes>
            0 -1 211 4.5570620568469167e-04</internalNodes>
          <leafValues>
            1.3770583271980286e-01 -8.4763616323471069e-01</leafValues></_>
        <_>
          <internalNodes>
            0 -1 120 5.9659536927938461e-03</internalNodes>
          <leafValues>
            -2.8933605551719666e-01 5.2866792678833008e-01</leafValues></_>
        <_>
          <internalNodes>
            0 -1 211 -4.6251097228378057e-04</internalNodes>
          <leafValues>
            -7.7820676565170288e-01 2.1399140357971191e-01</leafValues></_>
        <_>
          <internalNodes>
            0 -1 127 -4.0826597250998020e-03</internalNodes>
          <leafValues>
            5.2420711517333984e-01 -3.5310626029968262e-01</leafValues></_>
        <_>
          <internalNodes>
            0 -1 19 1.3473518192768097e-02</internalNodes>
          <leafValues>
            -2.9981791973114014e-01 5.0135284662246704e-01</leafValues></_>
        <_>
          <internalNodes>
            0 -1 85 -9.1686949133872986e-02</internalNodes>
          <leafValues>
            3.9737963676452637e-01 -4.0611931681632996e-01</leafValues></_>
        <_>
          <internalNodes>
            0 -1 108 4.1207756847143173e-02</internalNodes>
          <leafValues>
            -2.7189037203788757e-01 6.2921947240829468e-01</leafValues></_>
        <_>
          <internalNodes>
            0 -1 33 -1.7738239839673042e-03</internalNodes>
          <leafValues>
            -8.3395743370056152e-01 2.1535974740982056e-01</leafValues></_>
        <_>
          <internalNodes>
            0 -1 33 1.7838256899267435e-03</internalNodes>
          <leafValues>
            1.9158694148063660e-01 -8.4277278184890747e-01</leafValues></_>
        <_>
          <internalNodes>
            0 -1 80 1.3639272190630436e-02</internalNodes>
          <leafValues>
            -2.5885912775993347e-01 6.3803070783615112e-01</leafValues></_></weakClassifiers></_>
    <!-- stage 7 -->
    <_>
      <maxWeakCount>5</maxWeakCount>
      <stageThreshold>-6.4815658330917358e-01</stageThreshold>
      <weakClassifiers>
        <_>
          <internalNodes>
            0 -1 100 -1.6264678910374641e-02</internalNodes>
          <leafValues>
            7.7453184127807617e-01 -3.8766068220138550e-01</leafValues></_>
        <_>
          <internalNodes>
            0 -1 8 8.2885157316923141e-03</internalNodes>
          <leafValues>
            -3.9849972724914551e-01 6.4935356378555298e-01</leafValues></_>
        <_>
          <internalNodes>
            0 -1 139 -4.9521643668413162e-03</internalNodes>
          <leafValues>
            6.9905048608779907e-01 -3.0303198099136353e-01</leafValues></_>
        <_>
          <internalNodes>
            0 -1 129 -5.0097312778234482e-03</internalNodes>
          <leafValues>
            7.5033903121948242e-01 -2.6025399565696716e-01</leafValues></_>
        <_>
          <internalNodes>
            0 -1 119 -5.4615871049463749e-03</internalNodes>
          <leafValues>
            7.0128977298736572e-01 -2.3362453281879425e-01</leafValues></_></weakClassifiers></_>
    <!-- stage 8 -->
    <_>
      <maxWeakCount>9</maxWeakCount>
      <stageThreshold>-9.4092780351638794e-01</stageThreshold>
      <weakClassifiers>
        <_>
          <internalNodes>
            0 -1 169 -8.8591910898685455e-03</internalNodes>
          <leafValues>
            4.6801707148551941e-01 -4.2592594027519226e-01</leafValues></_>
        <_>
          <internalNodes>
            0 -1 189 6.0559976845979691e-03</internalNodes>
          <leafValues>
            1.9199183583259583e-01 -8.3057659864425659e-01</leafValues></_>
        <_>
          <internalNodes>
            0 -1 205 4.5031518675386906e-04</internalNodes>
          <leafValues>
            1.6817750036716461e-01 -8.7820589542388916e-01</leafValues></_>
        <_>
          <internalNodes>
            0 -1 58 1.6610564664006233e-02</internalNodes>
          <leafValues>
            -3.6450454592704773e-01 4.9807569384574890e-01</leafValues></_>
        <_>
          <internalNodes>
            0 -1 30 -1.3378586154431105e-03</internalNodes>
          <leafValues>
            -7.6732015609741211e-01 2.0995949208736420e-01</leafValues></_>
        <_>
          <internalNodes>
            0 -1 118 6.2670238316059113e-02</internalNodes>
          <leafValues>
            -2.4106901884078979e-01 7.3732113838195801e-01</leafValues></_>
        <_>
          <internalNodes>
            0 -1 5 4.4356926809996367e-04</internalNodes>
          <leafValues>
            2.0775578916072845e-01 -8.4015041589736938e-01</leafValues></_>
        <_>
          <internalNodes>
            0 -1 103 5.3159724920988083e-03</internalNodes>
          <leafValues>
            -3.0636152625083923e-01 6.3462376594543457e-01</leafValues></_>
        <_>
          <internalNodes>
            0 -1 143 -6.8309931084513664e-03</internalNodes>
          <leafValues>
            6.9607883691787720e-01 -1.9714826345443726e-01</leafValues></_></weakClassifiers></_>
    <!-- stage 9 -->
    <_>
      <maxWeakCount>10</maxWeakCount>
      <stageThreshold>-1.0196031332015991e+00</stageThreshold>
      <weakClassifiers>
        <_>
          <internalNodes>
            0 -1 205 -3.6873440258204937e-03</internalNodes>
          <leafValues>
            -7.9022079706192017e-01 2.9516249895095825e-01</leafValues></_>
        <_>
          <internalNodes>
            0 -1 174 -6.6869575530290604e-03</internalNodes>
          <leafValues>
            2.9778191447257996e-01 -5.3038430213928223e-01</leafValues></_>
        <_>
          <internalNodes>
            0 -1 130 2.7186223305761814e-03</internalNodes>
          <leafValues>
            -2.4910190701484680e-01 5.2937763929367065e-01</leafValues></_>
        <_>
          <internalNodes>
            0 -1 189 -6.7448634654283524e-03</internalNodes>
          <leafValues>
            -6.9580185413360596e-01 1.8898381292819977e-01</leafValues></_>
        <_>
          <internalNodes>
            0 -1 96 5.0375955179333687e-03</internalNodes>
          <leafValues>
            -2.8543227910995483e-01 4.5113068819046021e-01</leafValues></_>
        <_>
          <internalNodes>
            0 -1 40 1.6676257364451885e-03</internalNodes>
          <leafValues>
            9.2645294964313507e-02 -8.9679688215255737e-01</leafValues></_>
        <_>
          <internalNodes>
            0 -1 16 -3.1001448631286621e-02</internalNodes>
          <leafValues>
            1.2400612235069275e-01 -8.5743898153305054e-01</leafValues></_>
        <_>
          <internalNodes>
            0 -1 50 -4.4119759695604444e-04</internalNodes>
          <leafValues>
            -7.5983345508575439e-01 1.6731345653533936e-01</leafValues></_>
        <_>
          <internalNodes>
            0 -1 22 8.5103675723075867e-02</internalNodes>
          <leafValues>
            -3.6123368144035339e-01 3.7395504117012024e-01</leafValues></_>
        <_>
          <internalNodes>
            0 -1 161 2.9724750202149153e-03</internalNodes>
          <leafValues>
            -3.0028623342514038e-01 5.2051752805709839e-01</leafValues></_></weakClassifiers></_>
    <!-- stage 10 -->
    <_>
      <maxWeakCount>9</maxWeakCount>
      <stageThreshold>-1.2125338315963745e+00</stageThreshold>
      <weakClassifiers>
        <_>
          <internalNodes>
            0 -1 15 5.5748724844306707e-04</internalNodes>
          <leafValues>
            -6.4375001192092896e-01 4.6342593431472778e-01</leafValues></_>
        <_>
          <internalNodes>
            0 -1 93 1.7401871737092733e-03</internalNodes>
          <leafValues>
            -3.4755116701126099e-01 5.1314777135848999e-01</leafValues></_>
        <_>
          <internalNodes>
            0 -1 11 5.5266320705413818e-02</internalNodes>
          <leafValues>
            -2.8746652603149414e-01 4.9631872773170471e-01</leafValues></_>
        <_>
          <internalNodes>
            0 -1 76 7.3051691055297852e-02</internalNodes>
          <leafValues>
            -5.4031586647033691e-01 3.4152555465698242e-01</leafValues></_>
        <_>
          <internalNodes>
            0 -1 212 -1.1309771798551083e-03</internalNodes>
          <leafValues>
            -8.5117697715759277e-01 2.5206178426742554e-01</leafValues></_>
        <_>
          <internalNodes>
            0 -1 179 4.5676672016270459e-05</internalNodes>
          <leafValues>
            -3.5959932208061218e-01 4.0092548727989197e-01</leafValues></_>
        <_>
          <internalNodes>
            0 -1 212 6.1846489552408457e-04</internalNodes>
          <leafValues>
            1.7046868801116943e-01 -7.6460087299346924e-01</leafValues></_>
        <_>
          <internalNodes>
            0 -1 89 1.2053610756993294e-02</internalNodes>
          <leafValues>
            -2.5497266650199890e-01 5.9825986623764038e-01</leafValues></_>
        <_>
          <internalNodes>
            0 -1 107 -7.2996714152395725e-03</internalNodes>
          <leafValues>
            6.5986263751983643e-01 -2.3421402275562286e-01</leafValues></_></weakClassifiers></_>
    <!-- stage 11 -->
    <_>
      <maxWeakCount>11</maxWeakCount>
      <stageThreshold>-1.1442030668258667e+00</stageThreshold>
      <weakClassifiers>
        <_>
          <internalNodes>
            0 -1 182 -3.3694580197334290e-02</internalNodes>
          <leafValues>
            6.2463909387588501e-01 -1.6465863585472107e-01</leafValues></_>
        <_>
          <internalNodes>
            0 -1 190 -4.6192631998565048e-05</internalNodes>
          <leafValues>
            2.0802278816699982e-01 -6.9467037916183472e-01</leafValues></_>
        <_>
          <internalNodes>
            0 -1 1 -5.2782025886699557e-04</internalNodes>
          <leafValues>
            -8.7362617254257202e-01 1.1449449509382248e-01</leafValues></_>
        <_>
          <internalNodes>
            0 -1 87 4.7819055616855621e-03</internalNodes>
          <leafValues>
            -3.0233952403068542e-01 4.0780469775199890e-01</leafValues></_>
        <_>
          <internalNodes>
            0 -1 104 -6.8655312061309814e-03</internalNodes>
          <leafValues>
            5.9416401386260986e-01 -2.5809383392333984e-01</leafValues></_>
        <_>
          <internalNodes>
            0 -1 2 5.4897001245990396e-04</internalNodes>
          <leafValues>
            2.5759249925613403e-01 -7.9531073570251465e-01</leafValues></_>
        <_>
          <internalNodes>
            0 -1 109 -8.6748190224170685e-03</internalNodes>
          <leafValues>
            4.0758705139160156e-01 -3.5382387042045593e-01</leafValues></_>
        <_>
          <internalNodes>
            0 -1 59 -4.3639462091960013e-05</internalNodes>
          <leafValues>
            2.8012278676033020e-01 -4.6970796585083008e-01</leafValues></_>
        <_>
          <internalNodes>
            0 -1 55 1.6518628690391779e-03</internalNodes>
          <leafValues>
            1.8940898776054382e-01 -7.7318650484085083e-01</leafValues></_>
        <_>
          <internalNodes>
            0 -1 62 2.0828424021601677e-03</internalNodes>
          <leafValues>
            -2.9436719417572021e-01 4.5205914974212646e-01</leafValues></_>
        <_>
          <internalNodes>
            0 -1 91 2.2109201550483704e-01</internalNodes>
          <leafValues>
            -2.7321347594261169e-01 5.0104200839996338e-01</leafValues></_></weakClassifiers></_>
    <!-- stage 12 -->
    <_>
      <maxWeakCount>11</maxWeakCount>
      <stageThreshold>-9.7284799814224243e-01</stageThreshold>
      <weakClassifiers>
        <_>
          <internalNodes>
            0 -1 31 -4.4874366722069681e-05</internalNodes>
          <leafValues>
            2.5367578864097595e-01 -6.7649537324905396e-01</leafValues></_>
        <_>
          <internalNodes>
            0 -1 97 4.3786058085970581e-05</internalNodes>
          <leafValues>
            -3.3450940251350403e-01 3.9631158113479614e-01</leafValues></_>
        <_>
          <internalNodes>
            0 -1 25 7.2348471730947495e-03</internalNodes>
          <leafValues>
            -2.1759800612926483e-01 5.9665095806121826e-01</leafValues></_>
        <_>
          <internalNodes>
            0 -1 200 -1.0157801443710923e-03</internalNodes>
          <leafValues>
            -8.7340414524078369e-01 7.9311423003673553e-02</leafValues></_>
        <_>
          <internalNodes>
            0 -1 200 1.0232124477624893e-03</internalNodes>
          <leafValues>
            1.4308120310306549e-01 -7.9555439949035645e-01</leafValues></_>
        <_>
          <internalNodes>
            0 -1 49 2.1019241213798523e-01</internalNodes>
          <leafValues>
            1.0105375200510025e-01 -9.6197175979614258e-01</leafValues></_>
        <_>
          <internalNodes>
            0 -1 13 1.3652199506759644e-01</internalNodes>
          <leafValues>
            -5.1371520757675171e-01 2.5219336152076721e-01</leafValues></_>
        <_>
          <internalNodes>
            0 -1 222 7.8066834248602390e-04</internalNodes>
          <leafValues>
            1.8158817291259766e-01 -7.3203039169311523e-01</leafValues></_>
        <_>
          <internalNodes>
            0 -1 160 3.6687895189970732e-03</internalNodes>
          <leafValues>
            -2.7365183830261230e-01 4.4930610060691833e-01</leafValues></_>
        <_>
          <internalNodes>
            0 -1 222 -7.3897663969546556e-04</internalNodes>
          <leafValues>
            -6.9585895538330078e-01 1.7588423192501068e-01</leafValues></_>
        <_>
          <internalNodes>
            0 -1 122 -7.0236604660749435e-03</internalNodes>
          <leafValues>
            6.5818369388580322e-01 -2.4023891985416412e-01</leafValues></_></weakClassifiers></_>
    <!-- stage 13 -->
    <_>
      <maxWeakCount>12</maxWeakCount>
      <stageThreshold>-9.1094624996185303e-01</stageThreshold>
      <weakClassifiers>
        <_>
          <internalNodes>
            0 -1 163 -4.2851557955145836e-03</internalNodes>
          <leafValues>
            3.2812830805778503e-01 -5.4640305042266846e-01</leafValues></_>
        <_>
          <internalNodes>
            0 -1 0 3.7839129799976945e-04</internalNodes>
          <leafValues>
            1.5223856270313263e-01 -6.9155818223953247e-01</leafValues></_>
        <_>
          <internalNodes>
            0 -1 214 -4.5966738980496302e-05</internalNodes>
          <leafValues>
            1.9843178987503052e-01 -5.7305771112442017e-01</leafValues></_>
        <_>
          <internalNodes>
            0 -1 0 -2.7652754215523601e-04</internalNodes>
          <leafValues>
            -7.8244274854660034e-01 1.5674397349357605e-01</leafValues></_>
        <_>
          <internalNodes>
            0 -1 149 2.5637373328208923e-03</internalNodes>
          <leafValues>
            -2.7782416343688965e-01 4.9234834313392639e-01</leafValues></_>
        <_>
          <internalNodes>
            0 -1 125 -3.2569281756877899e-02</internalNodes>
          <leafValues>
            6.9761073589324951e-01 -1.8353368341922760e-01</leafValues></_>
        <_>
          <internalNodes>
            0 -1 63 5.7934597134590149e-03</internalNodes>
          <leafValues>
            -2.6210588216781616e-01 4.2538455128669739e-01</leafValues></_>
        <_>
          <internalNodes>
            0 -1 45 -5.7441665558144450e-04</internalNodes>
          <leafValues>
            -9.0807265043258667e-01 1.2816351652145386e-01</leafValues></_>
        <_>
          <internalNodes>
            0 -1 144 2.8448360972106457e-03</internalNodes>
          <leafValues>
            -2.9686722159385681e-01 4.7113066911697388e-01</leafValues></_>
        <_>
          <internalNodes>
            0 -1 198 -4.6175642637535930e-05</internalNodes>
          <leafValues>
            2.4533642828464508e-01 -5.7694059610366821e-01</leafValues></_>
        <_>
          <internalNodes>
            0 -1 99 3.3433169592171907e-03</internalNodes>
          <leafValues>
            -2.7504238486289978e-01 5.2844804525375366e-01</leafValues></_>
        <_>
          <internalNodes>
            0 -1 6 -4.6412482333835214e-05</internalNodes>
          <leafValues>
            1.9193322956562042e-01 -7.4778658151626587e-01</leafValues></_></weakClassifiers></_>
    <!-- stage 14 -->
    <_>
      <maxWeakCount>15</maxWeakCount>
      <stageThreshold>-1.0506644248962402e+00</stageThreshold>
      <weakClassifiers>
        <_>
          <internalNodes>
            0 -1 166 9.7899325191974640e-04</internalNodes>
          <leafValues>
            -1.8243412673473358e-01 4.9980583786964417e-01</leafValues></_>
        <_>
          <internalNodes>
            0 -1 171 -5.6155338883399963e-02</internalNodes>
          <leafValues>
            3.5705459117889404e-01 -2.9931634664535522e-01</leafValues></_>
        <_>
          <internalNodes>
            0 -1 17 5.8522092876955867e-04</internalNodes>
          <leafValues>
            1.3376271724700928e-01 -8.5800808668136597e-01</leafValues></_>
        <_>
          <internalNodes>
            0 -1 43 -1.2223558127880096e-01</internalNodes>
          <leafValues>
            2.9578098654747009e-01 -3.4617301821708679e-01</leafValues></_>
        <_>
          <internalNodes>
            0 -1 165 1.2247054837644100e-03</internalNodes>
          <leafValues>
            -2.8200995922088623e-01 4.6978974342346191e-01</leafValues></_>
        <_>
          <internalNodes>
            0 -1 39 1.0063601657748222e-03</internalNodes>
          <leafValues>
            1.8620333075523376e-01 -7.5489264726638794e-01</leafValues></_>
        <_>
          <internalNodes>
            0 -1 164 3.1935689039528370e-03</internalNodes>
          <leafValues>
            -2.4668517708778381e-01 5.7063549757003784e-01</leafValues></_>
        <_>
          <internalNodes>
            0 -1 101 2.2119013592600822e-03</internalNodes>
          <leafValues>
            -3.9011421799659729e-01 2.9773893952369690e-01</leafValues></_>
        <_>
          <internalNodes>
            0 -1 55 -2.5966577231884003e-03</internalNodes>
          <leafValues>
            -8.2643222808837891e-01 1.4224414527416229e-01</leafValues></_>
        <_>
          <internalNodes>
            0 -1 116 4.4477113988250494e-05</internalNodes>
          <leafValues>
            -3.5782393813133240e-01 3.2014048099517822e-01</leafValues></_>
        <_>
          <internalNodes>
            0 -1 51 2.1259039640426636e-03</internalNodes>
          <leafValues>
            1.1646611243486404e-01 -8.2118588685989380e-01</leafValues></_>
        <_>
          <internalNodes>
            0 -1 154 4.7120940871536732e-03</internalNodes>
          <leafValues>
            -2.4531404674053192e-01 5.2311009168624878e-01</leafValues></_>
        <_>
          <internalNodes>
            0 -1 137 -5.7514058426022530e-03</internalNodes>
          <leafValues>
            6.4488524198532104e-01 -1.7656753957271576e-01</leafValues></_>
        <_>
          <internalNodes>
            0 -1 204 1.6662725247442722e-03</internalNodes>
          <leafValues>
            1.6216273605823517e-01 -8.7770897150039673e-01</leafValues></_>
        <_>
          <internalNodes>
            0 -1 128 -1.3397533912211657e-03</internalNodes>
          <leafValues>
            3.3834916353225708e-01 -3.3946022391319275e-01</leafValues></_></weakClassifiers></_>
    <!-- stage 15 -->
    <_>
      <maxWeakCount>14</maxWeakCount>
      <stageThreshold>-1.1300541162490845e+00</stageThreshold>
      <weakClassifiers>
        <_>
          <internalNodes>
            0 -1 7 -1.0459294542670250e-02</internalNodes>
          <leafValues>
            -7.6778244972229004e-01 2.3090650141239166e-01</leafValues></_>
        <_>
          <internalNodes>
            0 -1 77 5.9937820769846439e-03</internalNodes>
          <leafValues>
            -2.4184411764144897e-01 4.6874654293060303e-01</leafValues></_>
        <_>
          <internalNodes>
            0 -1 196 2.6782746426761150e-03</internalNodes>
          <leafValues>
            1.6927249729633331e-01 -8.3911240100860596e-01</leafValues></_>
        <_>
          <internalNodes>
            0 -1 69 5.4954700171947479e-03</internalNodes>
          <leafValues>
            -3.2127094268798828e-01 3.5682722926139832e-01</leafValues></_>
        <_>
          <internalNodes>
            0 -1 115 4.5472785830497742e-02</internalNodes>
          <leafValues>
            -2.4199692904949188e-01 5.3058362007141113e-01</leafValues></_>
        <_>
          <internalNodes>
            0 -1 52 -2.1534002371481620e-05</internalNodes>
          <leafValues>
            2.9895424842834473e-01 -4.7560495138168335e-01</leafValues></_>
        <_>
          <internalNodes>
            0 -1 34 4.3292334303259850e-03</internalNodes>
          <leafValues>
            7.9791709780693054e-02 -9.1402262449264526e-01</leafValues></_>
        <_>
          <internalNodes>
            0 -1 146 -4.0011033415794373e-03</internalNodes>
          <leafValues>
            5.7044267654418945e-01 -2.2257994115352631e-01</leafValues></_>
        <_>
          <internalNodes>
            0 -1 44 -4.2977750126738101e-05</internalNodes>
          <leafValues>
            3.4392911195755005e-01 -2.8932386636734009e-01</leafValues></_>
        <_>
          <internalNodes>
            0 -1 145 6.9430395960807800e-03</internalNodes>
          <leafValues>
            -2.0071306824684143e-01 5.6553316116333008e-01</leafValues></_>
        <_>
          <internalNodes>
            0 -1 10 7.0109210908412933e-02</internalNodes>
          <leafValues>
            -1.9952328503131866e-01 4.7593614459037781e-01</leafValues></_>
        <_>
          <internalNodes>
            0 -1 213 -4.3027786887250841e-05</internalNodes>
          <leafValues>
            2.0084464550018311e-01 -5.5161422491073608e-01</leafValues></_>
        <_>
          <internalNodes>
            0 -1 184 1.5116920985747129e-04</internalNodes>
          <leafValues>
            -2.4980232119560242e-01 4.2460548877716064e-01</leafValues></_>
        <_>
          <internalNodes>
            0 -1 217 -1.5806995797902346e-03</internalNodes>
          <leafValues>
            -6.7447322607040405e-01 1.7294690012931824e-01</leafValues></_></weakClassifiers></_>
    <!-- stage 16 -->
    <_>
      <maxWeakCount>11</maxWeakCount>
      <stageThreshold>-7.4721252918243408e-01</stageThreshold>
      <weakClassifiers>
        <_>
          <internalNodes>
            0 -1 84 1.1700858362019062e-02</internalNodes>
          <leafValues>
            -1.1818764358758926e-01 5.9170651435852051e-01</leafValues></_>
        <_>
          <internalNodes>
            0 -1 117 -5.3061824291944504e-03</internalNodes>
          <leafValues>
            6.0598766803741455e-01 -1.8043930828571320e-01</leafValues></_>
        <_>
          <internalNodes>
            0 -1 70 1.6580778360366821e-01</internalNodes>
          <leafValues>
            -1.2479338049888611e-01 7.3617428541183472e-01</leafValues></_>
        <_>
          <internalNodes>
            0 -1 67 -1.5429008007049561e-01</internalNodes>
          <leafValues>
            2.7526605129241943e-01 -6.3376307487487793e-01</leafValues></_>
        <_>
          <internalNodes>
            0 -1 210 -9.4078993424773216e-04</internalNodes>
          <leafValues>
            -7.5593078136444092e-01 1.8991605937480927e-01</leafValues></_>
        <_>
          <internalNodes>
            0 -1 54 1.0694062337279320e-02</internalNodes>
          <leafValues>
            -5.2014911174774170e-01 2.0541936159133911e-01</leafValues></_>
        <_>
          <internalNodes>
            0 -1 136 9.0271020308136940e-03</internalNodes>
          <leafValues>
            -3.8146695494651794e-01 2.7667602896690369e-01</leafValues></_>
        <_>
          <internalNodes>
            0 -1 57 1.0068691335618496e-03</internalNodes>
          <leafValues>
            1.1438889801502228e-01 -7.0134681463241577e-01</leafValues></_>
        <_>
          <internalNodes>
            0 -1 60 -4.3129868572577834e-05</internalNodes>
          <leafValues>
            2.7184423804283142e-01 -3.9293256402015686e-01</leafValues></_>
        <_>
          <internalNodes>
            0 -1 73 5.6537659838795662e-03</internalNodes>
          <leafValues>
            -2.3435631394386292e-01 5.0031071901321411e-01</leafValues></_>
        <_>
          <internalNodes>
            0 -1 140 -2.2334072738885880e-02</internalNodes>
          <leafValues>
            -5.0564932823181152e-01 2.4846883118152618e-01</leafValues></_></weakClassifiers></_>
    <!-- stage 17 -->
    <_>
      <maxWeakCount>11</maxWeakCount>
      <stageThreshold>-1.0530824661254883e+00</stageThreshold>
      <weakClassifiers>
        <_>
          <internalNodes>
            0 -1 98 -1.9668277353048325e-02</internalNodes>
          <leafValues>
            3.1323942542076111e-01 -3.6058059334754944e-01</leafValues></_>
        <_>
          <internalNodes>
            0 -1 156 1.9424502970650792e-03</internalNodes>
          <leafValues>
            -1.9060303270816803e-01 5.4813075065612793e-01</leafValues></_>
        <_>
          <internalNodes>
            0 -1 133 -7.8457128256559372e-03</internalNodes>
          <leafValues>
            5.7126665115356445e-01 -2.0966544747352600e-01</leafValues></_>
        <_>
          <internalNodes>
            0 -1 30 1.8858395051211119e-03</internalNodes>
          <leafValues>
            1.8831412494182587e-01 -8.2193452119827271e-01</leafValues></_>
        <_>
          <internalNodes>
            0 -1 95 4.5422213152050972e-03</internalNodes>
          <leafValues>
            -2.5448232889175415e-01 4.8392918705940247e-01</leafValues></_>
        <_>
          <internalNodes>
            0 -1 92 1.0689213871955872e-02</internalNodes>
          <leafValues>
            -1.9165113568305969e-01 5.7543849945068359e-01</leafValues></_>
        <_>
          <internalNodes>
            0 -1 27 -2.6354454457759857e-03</internalNodes>
          <leafValues>
            -8.4166383743286133e-01 1.4532366394996643e-01</leafValues></_>
        <_>
          <internalNodes>
            0 -1 141 -5.4590404033660889e-03</internalNodes>
          <leafValues>
            4.3887296319007874e-01 -2.2434350848197937e-01</leafValues></_>
        <_>
          <internalNodes>
            0 -1 8 1.2621825560927391e-02</internalNodes>
          <leafValues>
            -2.3248282074928284e-01 4.3240946531295776e-01</leafValues></_>
        <_>
          <internalNodes>
            0 -1 78 -3.4714952111244202e-01</internalNodes>
          <leafValues>
            4.4140109419822693e-01 -2.4040119349956512e-01</leafValues></_>
        <_>
          <internalNodes>
            0 -1 83 5.0608650781214237e-03</internalNodes>
          <leafValues>
            -2.2092171013355255e-01 4.4950720667839050e-01</leafValues></_></weakClassifiers></_>
    <!-- stage 18 -->
    <_>
      <maxWeakCount>13</maxWeakCount>
      <stageThreshold>-1.0236074924468994e+00</stageThreshold>
      <weakClassifiers>
        <_>
          <internalNodes>
            0 -1 17 -6.3774327281862497e-04</internalNodes>
          <leafValues>
            -8.6906290054321289e-01 1.5680089592933655e-01</leafValues></_>
        <_>
          <internalNodes>
            0 -1 219 -4.4141488615423441e-05</internalNodes>
          <leafValues>
            1.9201995432376862e-01 -5.0655221939086914e-01</leafValues></_>
        <_>
          <internalNodes>
            0 -1 206 1.5875063836574554e-03</internalNodes>
          <leafValues>
            1.4367751777172089e-01 -8.2600122690200806e-01</leafValues></_>
        <_>
          <internalNodes>
            0 -1 178 1.9224374555051327e-03</internalNodes>
          <leafValues>
            -2.9154857993125916e-01 3.5693958401679993e-01</leafValues></_>
        <_>
          <internalNodes>
            0 -1 16 -1.3761326670646667e-02</internalNodes>
          <leafValues>
            1.0183574259281158e-01 -9.0020263195037842e-01</leafValues></_>
        <_>
          <internalNodes>
            0 -1 180 1.5580194303765893e-04</internalNodes>
          <leafValues>
            -2.4135413765907288e-01 4.1377753019332886e-01</leafValues></_>
        <_>
          <internalNodes>
            0 -1 53 -5.8336965739727020e-02</internalNodes>
          <leafValues>
            -8.9879357814788818e-01 9.7687348723411560e-02</leafValues></_>
        <_>
          <internalNodes>
            0 -1 29 1.1575007811188698e-03</internalNodes>
          <leafValues>
            8.4276758134365082e-02 -9.0359890460968018e-01</leafValues></_>
        <_>
          <internalNodes>
            0 -1 29 -1.1996859684586525e-03</internalNodes>
          <leafValues>
            -7.7061146497726440e-01 8.8848337531089783e-02</leafValues></_>
        <_>
          <internalNodes>
            0 -1 88 4.3134088627994061e-03</internalNodes>
          <leafValues>
            -2.5326037406921387e-01 4.0383854508399963e-01</leafValues></_>
        <_>
          <internalNodes>
            0 -1 74 -3.7820464931428432e-03</internalNodes>
          <leafValues>
            4.5335805416107178e-01 -2.0565795898437500e-01</leafValues></_>
        <_>
          <internalNodes>
            0 -1 75 4.3420314788818359e-02</internalNodes>
          <leafValues>
            -2.0142257213592529e-01 4.4761314988136292e-01</leafValues></_>
        <_>
          <internalNodes>
            0 -1 150 -9.4139913562685251e-04</internalNodes>
          <leafValues>
            3.1001687049865723e-01 -3.1322994828224182e-01</leafValues></_></weakClassifiers></_>
    <!-- stage 19 -->
    <_>
      <maxWeakCount>19</maxWeakCount>
      <stageThreshold>-1.1507620811462402e+00</stageThreshold>
      <weakClassifiers>
        <_>
          <internalNodes>
            0 -1 216 -8.5303222294896841e-04</internalNodes>
          <leafValues>
            -7.7607023715972900e-01 1.6644473373889923e-01</leafValues></_>
        <_>
          <internalNodes>
            0 -1 46 -1.1927306186407804e-03</internalNodes>
          <leafValues>
            -7.5717407464981079e-01 9.7773820161819458e-02</leafValues></_>
        <_>
          <internalNodes>
            0 -1 131 3.7700654938817024e-03</internalNodes>
          <leafValues>
            -2.4077445268630981e-01 4.2968571186065674e-01</leafValues></_>
        <_>
          <internalNodes>
            0 -1 151 5.3656734526157379e-02</internalNodes>
          <leafValues>
            -3.2714429497718811e-01 3.1389549374580383e-01</leafValues></_>
        <_>
          <internalNodes>
            0 -1 209 -4.2869494791375473e-05</internalNodes>
          <leafValues>
            2.1988256275653839e-01 -4.4501122832298279e-01</leafValues></_>
        <_>
          <internalNodes>
            0 -1 216 8.2999339792877436e-04</internalNodes>
          <leafValues>
            8.9857354760169983e-02 -7.8465139865875244e-01</leafValues></_>
        <_>
          <internalNodes>
            0 -1 64 2.8325426392257214e-03</internalNodes>
          <leafValues>
            -2.7267566323280334e-01 3.5767105221748352e-01</leafValues></_>
        <_>
          <internalNodes>
            0 -1 21 5.8347765356302261e-02</internalNodes>
          <leafValues>
            -3.2738232612609863e-01 3.2600021362304688e-01</leafValues></_>
        <_>
          <internalNodes>
            0 -1 79 1.8784310668706894e-02</internalNodes>
          <leafValues>
            -2.3993773758411407e-01 4.2585429549217224e-01</leafValues></_>
        <_>
          <internalNodes>
            0 -1 111 1.4689711853861809e-02</internalNodes>
          <leafValues>
            -1.6142360866069794e-01 6.8605417013168335e-01</leafValues></_>
        <_>
          <internalNodes>
            0 -1 201 -4.4933702156413347e-05</internalNodes>
          <leafValues>
            2.3326757550239563e-01 -4.2266657948493958e-01</leafValues></_>
        <_>
          <internalNodes>
            0 -1 203 -1.9891057163476944e-03</internalNodes>
          <leafValues>
            -6.6807562112808228e-01 1.5539930760860443e-01</leafValues></_>
        <_>
          <internalNodes>
            0 -1 72 1.5939604490995407e-02</internalNodes>
          <leafValues>
            -1.8718609213829041e-01 5.2610200643539429e-01</leafValues></_>
        <_>
          <internalNodes>
            0 -1 142 5.7153839617967606e-02</internalNodes>
          <leafValues>
            -1.5123794972896576e-01 6.8710356950759888e-01</leafValues></_>
        <_>
          <internalNodes>
            0 -1 181 2.0146908354945481e-04</internalNodes>
          <leafValues>
            -2.3814040422439575e-01 3.8326227664947510e-01</leafValues></_>
        <_>
          <internalNodes>
            0 -1 56 -4.6970377297839150e-05</internalNodes>
          <leafValues>
            1.9515790045261383e-01 -4.1809889674186707e-01</leafValues></_>
        <_>
          <internalNodes>
            0 -1 41 2.5301168207079172e-03</internalNodes>
          <leafValues>
            1.1218654364347458e-01 -7.8194892406463623e-01</leafValues></_>
        <_>
          <internalNodes>
            0 -1 147 2.1308759460225701e-04</internalNodes>
          <leafValues>
            -2.4488614499568939e-01 3.7030634284019470e-01</leafValues></_>
        <_>
          <internalNodes>
            0 -1 123 -4.3893046677112579e-03</internalNodes>
          <leafValues>
            4.5578366518020630e-01 -1.8792746961116791e-01</leafValues></_></weakClassifiers></_>
    <!-- stage 20 -->
    <_>
      <maxWeakCount>16</maxWeakCount>
      <stageThreshold>-1.0850685834884644e+00</stageThreshold>
      <weakClassifiers>
        <_>
          <internalNodes>
            0 -1 4 -4.6296059736050665e-05</internalNodes>
          <leafValues>
            2.0051524043083191e-01 -5.0728476047515869e-01</leafValues></_>
        <_>
          <internalNodes>
            0 -1 102 1.7410009168088436e-03</internalNodes>
          <leafValues>
            -3.0243360996246338e-01 3.1600940227508545e-01</leafValues></_>
        <_>
          <internalNodes>
            0 -1 186 3.7715397775173187e-04</internalNodes>
          <leafValues>
            1.1250206083059311e-01 -8.0925446748733521e-01</leafValues></_>
        <_>
          <internalNodes>
            0 -1 185 -4.1962251998484135e-05</internalNodes>
          <leafValues>
            3.0519184470176697e-01 -2.8465464711189270e-01</leafValues></_>
        <_>
          <internalNodes>
            0 -1 192 -4.4290161895332858e-05</internalNodes>
          <leafValues>
            1.7015151679515839e-01 -5.0851869583129883e-01</leafValues></_>
        <_>
          <internalNodes>
            0 -1 132 8.5914433002471924e-03</internalNodes>
          <leafValues>
            -1.8344683945178986e-01 5.3839999437332153e-01</leafValues></_>
        <_>
          <internalNodes>
            0 -1 68 2.7025206945836544e-03</internalNodes>
          <leafValues>
            -2.6090329885482788e-01 3.8686370849609375e-01</leafValues></_>
        <_>
          <internalNodes>
            0 -1 195 1.6067436663433909e-03</internalNodes>
          <leafValues>
            9.5201246440410614e-02 -7.7760779857635498e-01</leafValues></_>
        <_>
          <internalNodes>
            0 -1 48 -4.4481277465820312e-02</internalNodes>
          <leafValues>
            -9.2670303583145142e-01 7.0058338344097137e-02</leafValues></_>
        <_>
          <internalNodes>
            0 -1 177 1.6051885904744267e-04</internalNodes>
          <leafValues>
            -2.4320949614048004e-01 3.5315212607383728e-01</leafValues></_>
        <_>
          <internalNodes>
            0 -1 176 -1.9803524482995272e-03</internalNodes>
          <leafValues>
            4.3215268850326538e-01 -2.4129253625869751e-01</leafValues></_>
        <_>
          <internalNodes>
            0 -1 201 -1.3560258084908128e-03</internalNodes>
          <leafValues>
            -7.5925606489181519e-01 1.2630818784236908e-01</leafValues></_>
        <_>
          <internalNodes>
            0 -1 18 -2.3313499987125397e-03</internalNodes>
          <leafValues>
            -8.2884585857391357e-01 6.8579085171222687e-02</leafValues></_>
        <_>
          <internalNodes>
            0 -1 106 4.8558716662228107e-04</internalNodes>
          <leafValues>
            -2.4665573239326477e-01 3.2468101382255554e-01</leafValues></_>
        <_>
          <internalNodes>
            0 -1 66 4.7164388000965118e-02</internalNodes>
          <leafValues>
            1.1088267713785172e-01 -9.1958200931549072e-01</leafValues></_>
        <_>
          <internalNodes>
            0 -1 220 4.5301706995815039e-04</internalNodes>
          <leafValues>
            7.2323538362979889e-02 -8.2602274417877197e-01</leafValues></_></weakClassifiers></_>
    <!-- stage 21 -->
    <_>
      <maxWeakCount>17</maxWeakCount>
      <stageThreshold>-1.3451715707778931e+00</stageThreshold>
      <weakClassifiers>
        <_>
          <internalNodes>
            0 -1 82 3.3128744689747691e-04</internalNodes>
          <leafValues>
            -2.5705614686012268e-01 3.5328924655914307e-01</leafValues></_>
        <_>
          <internalNodes>
            0 -1 153 1.1805992573499680e-02</internalNodes>
          <leafValues>
            -1.2085426598787308e-01 6.3808506727218628e-01</leafValues></_>
        <_>
          <internalNodes>
            0 -1 134 -4.8014968633651733e-03</internalNodes>
          <leafValues>
            5.4873931407928467e-01 -2.2435617446899414e-01</leafValues></_>
        <_>
          <internalNodes>
            0 -1 202 8.9410418877378106e-04</internalNodes>
          <leafValues>
            1.2354051321744919e-01 -8.0962181091308594e-01</leafValues></_>
        <_>
          <internalNodes>
            0 -1 114 3.9541437290608883e-03</internalNodes>
          <leafValues>
            -2.1610037982463837e-01 4.3954011797904968e-01</leafValues></_>
        <_>
          <internalNodes>
            0 -1 183 -3.5280313342809677e-02</internalNodes>
          <leafValues>
            4.1622051596641541e-01 -2.0371860265731812e-01</leafValues></_>
        <_>
          <internalNodes>
            0 -1 167 3.7999430787749588e-04</internalNodes>
          <leafValues>
            -2.1848814189434052e-01 4.5874762535095215e-01</leafValues></_>
        <_>
          <internalNodes>
            0 -1 193 -2.3397238692268729e-05</internalNodes>
          <leafValues>
            1.5459948778152466e-01 -6.2760108709335327e-01</leafValues></_>
        <_>
          <internalNodes>
            0 -1 155 6.4917840063571930e-03</internalNodes>
          <leafValues>
            -1.8893103301525116e-01 5.1784819364547729e-01</leafValues></_>
        <_>
          <internalNodes>
            0 -1 188 -1.2199622578918934e-02</internalNodes>
          <leafValues>
            -6.8990546464920044e-01 1.3000923395156860e-01</leafValues></_>
        <_>
          <internalNodes>
            0 -1 61 7.3191430419683456e-04</internalNodes>
          <leafValues>
            -3.5504060983657837e-01 2.4644504487514496e-01</leafValues></_>
        <_>
          <internalNodes>
            0 -1 112 -1.0298302769660950e-01</internalNodes>
          <leafValues>
            4.5729243755340576e-01 -1.9532240927219391e-01</leafValues></_>
        <_>
          <internalNodes>
            0 -1 36 2.0082929730415344e-01</internalNodes>
          <leafValues>
            -1.7185184359550476e-01 7.0722979307174683e-01</leafValues></_>
        <_>
          <internalNodes>
            0 -1 110 8.3378013223409653e-03</internalNodes>
          <leafValues>
            -1.4213505387306213e-01 5.8647328615188599e-01</leafValues></_>
        <_>
          <internalNodes>
            0 -1 187 -4.9385438614990562e-05</internalNodes>
          <leafValues>
            1.6369320452213287e-01 -5.8278018236160278e-01</leafValues></_>
        <_>
          <internalNodes>
            0 -1 135 1.4917891472578049e-02</internalNodes>
          <leafValues>
            -1.3312236964702606e-01 6.9907426834106445e-01</leafValues></_>
        <_>
          <internalNodes>
            0 -1 148 1.2889863923192024e-02</internalNodes>
          <leafValues>
            -1.4265173673629761e-01 6.1123204231262207e-01</leafValues></_></weakClassifiers></_>
    <!-- stage 22 -->
    <_>
      <maxWeakCount>15</maxWeakCount>
      <stageThreshold>-1.0091408491134644e+00</stageThreshold>
      <weakClassifiers>
        <_>
          <internalNodes>
            0 -1 215 -5.3118262439966202e-04</internalNodes>
          <leafValues>
            -8.7009066343307495e-01 1.3512532413005829e-01</leafValues></_>
        <_>
          <internalNodes>
            0 -1 138 -9.8089370876550674e-03</internalNodes>
          <leafValues>
            5.3482407331466675e-01 -1.6635370254516602e-01</leafValues></_>
        <_>
          <internalNodes>
            0 -1 152 -9.1756936162710190e-03</internalNodes>
          <leafValues>
            4.5261320471763611e-01 -2.0822475850582123e-01</leafValues></_>
        <_>
          <internalNodes>
            0 -1 124 1.0805494338274002e-01</internalNodes>
          <leafValues>
            -2.3710173368453979e-01 4.4253695011138916e-01</leafValues></_>
        <_>
          <internalNodes>
            0 -1 20 -8.1070810556411743e-03</internalNodes>
          <leafValues>
            1.6364380717277527e-01 -6.3867962360382080e-01</leafValues></_>
        <_>
          <internalNodes>
            0 -1 223 -4.3235588236711919e-05</internalNodes>
          <leafValues>
            3.0129021406173706e-01 -3.5929718613624573e-01</leafValues></_>
        <_>
          <internalNodes>
            0 -1 126 8.0472405534237623e-04</internalNodes>
          <leafValues>
            -2.6674622297286987e-01 4.7452056407928467e-01</leafValues></_>
        <_>
          <internalNodes>
            0 -1 121 -4.4088400900363922e-03</internalNodes>
          <leafValues>
            6.7145574092864990e-01 -1.3561552762985229e-01</leafValues></_>
        <_>
          <internalNodes>
            0 -1 23 -5.8565766084939241e-04</internalNodes>
          <leafValues>
            -8.6806160211563110e-01 1.3632488250732422e-01</leafValues></_>
        <_>
          <internalNodes>
            0 -1 168 6.8840859457850456e-03</internalNodes>
          <leafValues>
            -2.9377192258834839e-01 3.4553402662277222e-01</leafValues></_>
        <_>
          <internalNodes>
            0 -1 199 -2.2123507733340375e-05</internalNodes>
          <leafValues>
            1.6560856997966766e-01 -6.0733073949813843e-01</leafValues></_>
        <_>
          <internalNodes>
            0 -1 175 9.7177899442613125e-04</internalNodes>
          <leafValues>
            -2.3614551126956940e-01 5.3192079067230225e-01</leafValues></_>
        <_>
          <internalNodes>
            0 -1 12 -1.0144628584384918e-02</internalNodes>
          <leafValues>
            -8.2748997211456299e-01 1.6566398739814758e-01</leafValues></_>
        <_>
          <internalNodes>
            0 -1 173 -3.4890726674348116e-03</internalNodes>
          <leafValues>
            7.0710915327072144e-01 -1.9719846546649933e-01</leafValues></_>
        <_>
          <internalNodes>
            0 -1 157 -4.9348277971148491e-03</internalNodes>
          <leafValues>
            5.8806729316711426e-01 -1.6662597656250000e-01</leafValues></_></weakClassifiers></_></stages>
  <features>
    <_>
      <rects>
        <_>
          0 0 2 1 -1.</_>
        <_>
          1 0 1 1 2.</_></rects>
      <tilted>0</tilted></_>
    <_>
      <rects>
        <_>
          0 0 1 2 -1.</_>
        <_>
          0 1 1 1 2.</_></rects>
      <tilted>0</tilted></_>
    <_>
      <rects>
        <_>
          0 0 1 3 -1.</_>
        <_>
          0 1 1 1 3.</_></rects>
      <tilted>0</tilted></_>
    <_>
      <rects>
        <_>
          0 0 1 6 -1.</_>
        <_>
          0 2 1 2 3.</_></rects>
      <tilted>0</tilted></_>
    <_>
      <rects>
        <_>
          0 0 1 8 -1.</_>
        <_>
          0 4 1 4 2.</_></rects>
      <tilted>0</tilted></_>
    <_>
      <rects>
        <_>
          0 0 1 10 -1.</_>
        <_>
          0 5 1 5 2.</_></rects>
      <tilted>0</tilted></_>
    <_>
      <rects>
        <_>
          0 0 1 12 -1.</_>
        <_>
          0 6 1 6 2.</_></rects>
      <tilted>0</tilted></_>
    <_>
      <rects>
        <_>
          0 0 1 14 -1.</_>
        <_>
          0 7 1 7 2.</_></rects>
      <tilted>0</tilted></_>
    <_>
      <rects>
        <_>
          0 0 6 3 -1.</_>
        <_>
          3 0 3 3 2.</_></rects>
      <tilted>0</tilted></_>
    <_>
      <rects>
        <_>
          0 0 6 5 -1.</_>
        <_>
          3 0 3 5 2.</_></rects>
      <tilted>0</tilted></_>
    <_>
      <rects>
        <_>
          0 0 6 23 -1.</_>
        <_>
          3 0 3 23 2.</_></rects>
      <tilted>0</tilted></_>
    <_>
      <rects>
        <_>
          0 0 6 24 -1.</_>
        <_>
          3 0 3 24 2.</_></rects>
      <tilted>0</tilted></_>
    <_>
      <rects>
        <_>
          0 0 18 2 -1.</_>
        <_>
          9 0 9 2 2.</_></rects>
      <tilted>0</tilted></_>
    <_>
      <rects>
        <_>
          0 0 18 23 -1.</_>
        <_>
          9 0 9 23 2.</_></rects>
      <tilted>0</tilted></_>
    <_>
      <rects>
        <_>
          0 0 18 24 -1.</_>
        <_>
          9 0 9 24 2.</_></rects>
      <tilted>0</tilted></_>
    <_>
      <rects>
        <_>
          0 0 20 2 -1.</_>
        <_>
          10 0 10 2 2.</_></rects>
      <tilted>0</tilted></_>
    <_>
      <rects>
        <_>
          0 0 24 18 -1.</_>
        <_>
          0 9 24 9 2.</_></rects>
      <tilted>0</tilted></_>
    <_>
      <rects>
        <_>
          0 1 1 3 -1.</_>
        <_>
          0 2 1 1 3.</_></rects>
      <tilted>0</tilted></_>
    <_>
      <rects>
        <_>
          0 1 1 9 -1.</_>
        <_>
          0 4 1 3 3.</_></rects>
      <tilted>0</tilted></_>
    <_>
      <rects>
        <_>
          0 1 6 3 -1.</_>
        <_>
          3 1 3 3 2.</_></rects>
      <tilted>0</tilted></_>
    <_>
      <rects>
        <_>
          0 1 5 16 -1.</_>
        <_>
          0 9 5 8 2.</_></rects>
      <tilted>0</tilted></_>
    <_>
      <rects>
        <_>
          0 1 14 9 -1.</_>
        <_>
          7 1 7 9 2.</_></rects>
      <tilted>0</tilted></_>
    <_>
      <rects>
        <_>
          0 1 22 18 -1.</_>
        <_>
          0 7 22 6 3.</_></rects>
      <tilted>0</tilted></_>
    <_>
      <rects>
        <_>
          0 2 1 3 -1.</_>
        <_>
          0 3 1 1 3.</_></rects>
      <tilted>0</tilted></_>
    <_>
      <rects>
        <_>
          0 2 1 12 -1.</_>
        <_>
          0 8 1 6 2.</_></rects>
      <tilted>0</tilted></_>
    <_>
      <rects>
        <_>
          0 2 4 3 -1.</_>
        <_>
          2 2 2 3 2.</_></rects>
      <tilted>0</tilted></_>
    <_>
      <rects>
        <_>
          0 3 1 6 -1.</_>
        <_>
          0 5 1 2 3.</_></rects>
      <tilted>0</tilted></_>
    <_>
      <rects>
        <_>
          0 3 1 6 -1.</_>
        <_>
          0 6 1 3 2.</_></rects>
      <tilted>0</tilted></_>
    <_>
      <rects>
        <_>
          0 3 1 9 -1.</_>
        <_>
          0 6 1 3 3.</_></rects>
      <tilted>0</tilted></_>
    <_>
      <rects>
        <_>
          0 4 1 6 -1.</_>
        <_>
          0 6 1 2 3.</_></rects>
      <tilted>0</tilted></_>
    <_>
      <rects>
        <_>
          0 4 1 9 -1.</_>
        <_>
          0 7 1 3 3.</_></rects>
      <tilted>0</tilted></_>
    <_>
      <rects>
        <_>
          0 4 1 14 -1.</_>
        <_>
          0 11 1 7 2.</_></rects>
      <tilted>0</tilted></_>
    <_>
      <rects>
        <_>
          0 5 1 6 -1.</_>
        <_>
          0 7 1 2 3.</_></rects>
      <tilted>0</tilted></_>
    <_>
      <rects>
        <_>
          0 5 1 9 -1.</_>
        <_>
          0 8 1 3 3.</_></rects>
      <tilted>0</tilted></_>
    <_>
      <rects>
        <_>
          0 5 1 15 -1.</_>
        <_>
          0 10 1 5 3.</_></rects>
      <tilted>0</tilted></_>
    <_>
      <rects>
        <_>
          0 6 1 6 -1.</_>
        <_>
          0 8 1 2 3.</_></rects>
      <tilted>0</tilted></_>
    <_>
      <rects>
        <_>
          0 7 23 16 -1.</_>
        <_>
          0 15 23 8 2.</_></rects>
      <tilted>0</tilted></_>
    <_>
      <rects>
        <_>
          0 9 1 6 -1.</_>
        <_>
          0 11 1 2 3.</_></rects>
      <tilted>0</tilted></_>
    <_>
      <rects>
        <_>
          0 9 1 9 -1.</_>
        <_>
          0 12 1 3 3.</_></rects>
      <tilted>0</tilted></_>
    <_>
      <rects>
        <_>
          0 10 1 6 -1.</_>
        <_>
          0 12 1 2 3.</_></rects>
      <tilted>0</tilted></_>
    <_>
      <rects>
        <_>
          0 10 1 9 -1.</_>
        <_>
          0 13 1 3 3.</_></rects>
      <tilted>0</tilted></_>
    <_>
      <rects>
        <_>
          0 10 1 12 -1.</_>
        <_>
          0 14 1 4 3.</_></rects>
      <tilted>0</tilted></_>
    <_>
      <rects>
        <_>
          0 10 16 11 -1.</_>
        <_>
          8 10 8 11 2.</_></rects>
      <tilted>0</tilted></_>
    <_>
      <rects>
        <_>
          0 10 23 10 -1.</_>
        <_>
          0 15 23 5 2.</_></rects>
      <tilted>0</tilted></_>
    <_>
      <rects>
        <_>
          0 11 1 2 -1.</_>
        <_>
          0 12 1 1 2.</_></rects>
      <tilted>0</tilted></_>
    <_>
      <rects>
        <_>
          0 11 1 3 -1.</_>
        <_>
          0 12 1 1 3.</_></rects>
      <tilted>0</tilted></_>
    <_>
      <rects>
        <_>
          0 11 1 6 -1.</_>
        <_>
          0 13 1 2 3.</_></rects>
      <tilted>0</tilted></_>
    <_>
      <rects>
        <_>
          0 11 1 9 -1.</_>
        <_>
          0 14 1 3 3.</_></rects>
      <tilted>0</tilted></_>
    <_>
      <rects>
        <_>
          0 11 12 8 -1.</_>
        <_>
          6 11 6 8 2.</_></rects>
      <tilted>0</tilted></_>
    <_>
      <rects>
        <_>
          0 11 18 9 -1.</_>
        <_>
          9 11 9 9 2.</_></rects>
      <tilted>0</tilted></_>
    <_>
      <rects>
        <_>
          0 12 1 2 -1.</_>
        <_>
          0 13 1 1 2.</_></rects>
      <tilted>0</tilted></_>
    <_>
      <rects>
        <_>
          0 12 1 9 -1.</_>
        <_>
          0 15 1 3 3.</_></rects>
      <tilted>0</tilted></_>
    <_>
      <rects>
        <_>
          0 12 1 8 -1.</_>
        <_>
          0 16 1 4 2.</_></rects>
      <tilted>0</tilted></_>
    <_>
      <rects>
        <_>
          0 12 24 7 -1.</_>
        <_>
          8 12 8 7 3.</_></rects>
      <tilted>0</tilted></_>
    <_>
      <rects>
        <_>
          0 12 16 8 -1.</_>
        <_>
          8 12 8 8 2.</_></rects>
      <tilted>0</tilted></_>
    <_>
      <rects>
        <_>
          0 13 1 9 -1.</_>
        <_>
          0 16 1 3 3.</_></rects>
      <tilted>0</tilted></_>
    <_>
      <rects>
        <_>
          0 15 1 6 -1.</_>
        <_>
          0 18 1 3 2.</_></rects>
      <tilted>0</tilted></_>
    <_>
      <rects>
        <_>
          0 15 1 9 -1.</_>
        <_>
          0 18 1 3 3.</_></rects>
      <tilted>0</tilted></_>
    <_>
      <rects>
        <_>
          0 15 24 6 -1.</_>
        <_>
          0 17 24 2 3.</_></rects>
      <tilted>0</tilted></_>
    <_>
      <rects>
        <_>
          0 16 1 6 -1.</_>
        <_>
          0 19 1 3 2.</_></rects>
      <tilted>0</tilted></_>
    <_>
      <rects>
        <_>
          0 19 1 4 -1.</_>
        <_>
          0 21 1 2 2.</_></rects>
      <tilted>0</tilted></_>
    <_>
      <rects>
        <_>
          1 0 6 1 -1.</_>
        <_>
          4 0 3 1 2.</_></rects>
      <tilted>0</tilted></_>
    <_>
      <rects>
        <_>
          1 0 6 3 -1.</_>
        <_>
          1 1 6 1 3.</_></rects>
      <tilted>0</tilted></_>
    <_>
      <rects>
        <_>
          1 0 6 6 -1.</_>
        <_>
          1 2 6 2 3.</_></rects>
      <tilted>0</tilted></_>
    <_>
      <rects>
        <_>
          1 1 4 6 -1.</_>
        <_>
          1 3 4 2 3.</_></rects>
      <tilted>0</tilted></_>
    <_>
      <rects>
        <_>
          1 5 21 3 -1.</_>
        <_>
          1 6 21 1 3.</_></rects>
      <tilted>0</tilted></_>
    <_>
      <rects>
        <_>
          1 7 14 8 -1.</_>
        <_>
          1 11 14 4 2.</_></rects>
      <tilted>0</tilted></_>
    <_>
      <rects>
        <_>
          1 7 21 16 -1.</_>
        <_>
          1 15 21 8 2.</_></rects>
      <tilted>0</tilted></_>
    <_>
      <rects>
        <_>
          1 7 22 2 -1.</_>
        <_>
          1 8 22 1 2.</_></rects>
      <tilted>0</tilted></_>
    <_>
      <rects>
        <_>
          1 7 22 3 -1.</_>
        <_>
          1 8 22 1 3.</_></rects>
      <tilted>0</tilted></_>
    <_>
      <rects>
        <_>
          1 8 22 14 -1.</_>
        <_>
          1 15 22 7 2.</_></rects>
      <tilted>0</tilted></_>
    <_>
      <rects>
        <_>
          1 9 21 12 -1.</_>
        <_>
          1 15 21 6 2.</_></rects>
      <tilted>0</tilted></_>
    <_>
      <rects>
        <_>
          1 11 20 3 -1.</_>
        <_>
          1 12 20 1 3.</_></rects>
      <tilted>0</tilted></_>
    <_>
      <rects>
        <_>
          2 0 8 2 -1.</_>
        <_>
          2 1 8 1 2.</_></rects>
      <tilted>0</tilted></_>
    <_>
      <rects>
        <_>
          2 0 14 2 -1.</_>
        <_>
          2 1 14 1 2.</_></rects>
      <tilted>0</tilted></_>
    <_>
      <rects>
        <_>
          2 0 20 6 -1.</_>
        <_>
          2 2 20 2 3.</_></rects>
      <tilted>0</tilted></_>
    <_>
      <rects>
        <_>
          2 1 19 18 -1.</_>
        <_>
          2 7 19 6 3.</_></rects>
      <tilted>0</tilted></_>
    <_>
      <rects>
        <_>
          2 3 18 3 -1.</_>
        <_>
          2 4 18 1 3.</_></rects>
      <tilted>0</tilted></_>
    <_>
      <rects>
        <_>
          2 5 20 18 -1.</_>
        <_>
          2 14 20 9 2.</_></rects>
      <tilted>0</tilted></_>
    <_>
      <rects>
        <_>
          2 6 19 6 -1.</_>
        <_>
          2 8 19 2 3.</_></rects>
      <tilted>0</tilted></_>
    <_>
      <rects>
        <_>
          2 7 19 3 -1.</_>
        <_>
          2 8 19 1 3.</_></rects>
      <tilted>0</tilted></_>
    <_>
      <rects>
        <_>
          2 10 20 10 -1.</_>
        <_>
          2 15 20 5 2.</_></rects>
      <tilted>0</tilted></_>
    <_>
      <rects>
        <_>
          2 11 4 2 -1.</_>
        <_>
          2 12 4 1 2.</_></rects>
      <tilted>0</tilted></_>
    <_>
      <rects>
        <_>
          2 11 14 4 -1.</_>
        <_>
          2 13 14 2 2.</_></rects>
      <tilted>0</tilted></_>
    <_>
      <rects>
        <_>
          2 11 20 3 -1.</_>
        <_>
          2 12 20 1 3.</_></rects>
      <tilted>0</tilted></_>
    <_>
      <rects>
        <_>
          2 11 20 10 -1.</_>
        <_>
          2 16 20 5 2.</_></rects>
      <tilted>0</tilted></_>
    <_>
      <rects>
        <_>
          2 13 20 6 -1.</_>
        <_>
          2 15 20 2 3.</_></rects>
      <tilted>0</tilted></_>
    <_>
      <rects>
        <_>
          2 16 15 2 -1.</_>
        <_>
          2 17 15 1 2.</_></rects>
      <tilted>0</tilted></_>
    <_>
      <rects>
        <_>
          3 0 9 3 -1.</_>
        <_>
          3 1 9 1 3.</_></rects>
      <tilted>0</tilted></_>
    <_>
      <rects>
        <_>
          3 0 15 3 -1.</_>
        <_>
          3 1 15 1 3.</_></rects>
      <tilted>0</tilted></_>
    <_>
      <rects>
        <_>
          3 0 19 2 -1.</_>
        <_>
          3 1 19 1 2.</_></rects>
      <tilted>0</tilted></_>
    <_>
      <rects>
        <_>
          3 1 21 14 -1.</_>
        <_>
          10 1 7 14 3.</_></rects>
      <tilted>0</tilted></_>
    <_>
      <rects>
        <_>
          3 8 18 3 -1.</_>
        <_>
          3 9 18 1 3.</_></rects>
      <tilted>0</tilted></_>
    <_>
      <rects>
        <_>
          3 9 11 6 -1.</_>
        <_>
          3 12 11 3 2.</_></rects>
      <tilted>0</tilted></_>
    <_>
      <rects>
        <_>
          3 9 20 3 -1.</_>
        <_>
          3 10 20 1 3.</_></rects>
      <tilted>0</tilted></_>
    <_>
      <rects>
        <_>
          3 10 15 3 -1.</_>
        <_>
          3 11 15 1 3.</_></rects>
      <tilted>0</tilted></_>
    <_>
      <rects>
        <_>
          3 10 18 4 -1.</_>
        <_>
          3 12 18 2 2.</_></rects>
      <tilted>0</tilted></_>
    <_>
      <rects>
        <_>
          3 11 1 2 -1.</_>
        <_>
          3 12 1 1 2.</_></rects>
      <tilted>0</tilted></_>
    <_>
      <rects>
        <_>
          3 11 18 9 -1.</_>
        <_>
          3 14 18 3 3.</_></rects>
      <tilted>0</tilted></_>
    <_>
      <rects>
        <_>
          3 12 20 2 -1.</_>
        <_>
          3 13 20 1 2.</_></rects>
      <tilted>0</tilted></_>
    <_>
      <rects>
        <_>
          3 13 20 6 -1.</_>
        <_>
          3 15 20 2 3.</_></rects>
      <tilted>0</tilted></_>
    <_>
      <rects>
        <_>
          3 15 6 6 -1.</_>
        <_>
          6 15 3 6 2.</_></rects>
      <tilted>0</tilted></_>
    <_>
      <rects>
        <_>
          3 15 4 6 -1.</_>
        <_>
          3 17 4 2 3.</_></rects>
      <tilted>0</tilted></_>
    <_>
      <rects>
        <_>
          3 15 19 2 -1.</_>
        <_>
          3 16 19 1 2.</_></rects>
      <tilted>0</tilted></_>
    <_>
      <rects>
        <_>
          3 16 15 3 -1.</_>
        <_>
          3 17 15 1 3.</_></rects>
      <tilted>0</tilted></_>
    <_>
      <rects>
        <_>
          3 16 18 2 -1.</_>
        <_>
          3 17 18 1 2.</_></rects>
      <tilted>0</tilted></_>
    <_>
      <rects>
        <_>
          4 0 1 3 -1.</_>
        <_>
          4 1 1 1 3.</_></rects>
      <tilted>0</tilted></_>
    <_>
      <rects>
        <_>
          4 0 16 2 -1.</_>
        <_>
          4 1 16 1 2.</_></rects>
      <tilted>0</tilted></_>
    <_>
      <rects>
        <_>
          4 0 16 6 -1.</_>
        <_>
          4 2 16 2 3.</_></rects>
      <tilted>0</tilted></_>
    <_>
      <rects>
        <_>
          4 5 19 3 -1.</_>
        <_>
          4 6 19 1 3.</_></rects>
      <tilted>0</tilted></_>
    <_>
      <rects>
        <_>
          4 10 11 3 -1.</_>
        <_>
          4 11 11 1 3.</_></rects>
      <tilted>0</tilted></_>
    <_>
      <rects>
        <_>
          4 10 15 3 -1.</_>
        <_>
          4 11 15 1 3.</_></rects>
      <tilted>0</tilted></_>
    <_>
      <rects>
        <_>
          4 11 17 8 -1.</_>
        <_>
          4 15 17 4 2.</_></rects>
      <tilted>0</tilted></_>
    <_>
      <rects>
        <_>
          4 11 18 8 -1.</_>
        <_>
          4 15 18 4 2.</_></rects>
      <tilted>0</tilted></_>
    <_>
      <rects>
        <_>
          4 17 7 3 -1.</_>
        <_>
          4 18 7 1 3.</_></rects>
      <tilted>0</tilted></_>
    <_>
      <rects>
        <_>
          5 0 17 6 -1.</_>
        <_>
          5 2 17 2 3.</_></rects>
      <tilted>0</tilted></_>
    <_>
      <rects>
        <_>
          5 11 1 2 -1.</_>
        <_>
          5 12 1 1 2.</_></rects>
      <tilted>0</tilted></_>
    <_>
      <rects>
        <_>
          5 11 16 3 -1.</_>
        <_>
          5 12 16 1 3.</_></rects>
      <tilted>0</tilted></_>
    <_>
      <rects>
        <_>
          5 11 16 6 -1.</_>
        <_>
          5 13 16 2 3.</_></rects>
      <tilted>0</tilted></_>
    <_>
      <rects>
        <_>
          5 13 17 3 -1.</_>
        <_>
          5 14 17 1 3.</_></rects>
      <tilted>0</tilted></_>
    <_>
      <rects>
        <_>
          5 16 17 2 -1.</_>
        <_>
          5 17 17 1 2.</_></rects>
      <tilted>0</tilted></_>
    <_>
      <rects>
        <_>
          6 0 7 3 -1.</_>
        <_>
          6 1 7 1 3.</_></rects>
      <tilted>0</tilted></_>
    <_>
      <rects>
        <_>
          6 0 15 3 -1.</_>
        <_>
          6 1 15 1 3.</_></rects>
      <tilted>0</tilted></_>
    <_>
      <rects>
        <_>
          6 1 14 3 -1.</_>
        <_>
          6 2 14 1 3.</_></rects>
      <tilted>0</tilted></_>
    <_>
      <rects>
        <_>
          6 4 18 9 -1.</_>
        <_>
          12 4 6 9 3.</_></rects>
      <tilted>0</tilted></_>
    <_>
      <rects>
        <_>
          6 18 16 4 -1.</_>
        <_>
          6 20 16 2 2.</_></rects>
      <tilted>0</tilted></_>
    <_>
      <rects>
        <_>
          7 0 1 2 -1.</_>
        <_>
          7 1 1 1 2.</_></rects>
      <tilted>0</tilted></_>
    <_>
      <rects>
        <_>
          7 1 14 2 -1.</_>
        <_>
          7 2 14 1 2.</_></rects>
      <tilted>0</tilted></_>
    <_>
      <rects>
        <_>
          7 2 6 2 -1.</_>
        <_>
          7 3 6 1 2.</_></rects>
      <tilted>0</tilted></_>
    <_>
      <rects>
        <_>
          7 12 16 3 -1.</_>
        <_>
          7 13 16 1 3.</_></rects>
      <tilted>0</tilted></_>
    <_>
      <rects>
        <_>
          7 20 13 2 -1.</_>
        <_>
          7 21 13 1 2.</_></rects>
      <tilted>0</tilted></_>
    <_>
      <rects>
        <_>
          7 21 14 3 -1.</_>
        <_>
          7 22 14 1 3.</_></rects>
      <tilted>0</tilted></_>
    <_>
      <rects>
        <_>
          8 6 11 3 -1.</_>
        <_>
          8 7 11 1 3.</_></rects>
      <tilted>0</tilted></_>
    <_>
      <rects>
        <_>
          8 10 13 3 -1.</_>
        <_>
          8 11 13 1 3.</_></rects>
      <tilted>0</tilted></_>
    <_>
      <rects>
        <_>
          8 17 11 3 -1.</_>
        <_>
          8 18 11 1 3.</_></rects>
      <tilted>0</tilted></_>
    <_>
      <rects>
        <_>
          8 18 14 3 -1.</_>
        <_>
          8 19 14 1 3.</_></rects>
      <tilted>0</tilted></_>
    <_>
      <rects>
        <_>
          9 0 15 2 -1.</_>
        <_>
          14 0 5 2 3.</_></rects>
      <tilted>0</tilted></_>
    <_>
      <rects>
        <_>
          9 0 9 3 -1.</_>
        <_>
          9 1 9 1 3.</_></rects>
      <tilted>0</tilted></_>
    <_>
      <rects>
        <_>
          9 5 6 9 -1.</_>
        <_>
          11 5 2 9 3.</_></rects>
      <tilted>0</tilted></_>
    <_>
      <rects>
        <_>
          9 5 13 3 -1.</_>
        <_>
          9 6 13 1 3.</_></rects>
      <tilted>0</tilted></_>
    <_>
      <rects>
        <_>
          9 8 15 6 -1.</_>
        <_>
          9 11 15 3 2.</_></rects>
      <tilted>0</tilted></_>
    <_>
      <rects>
        <_>
          10 8 13 3 -1.</_>
        <_>
          10 9 13 1 3.</_></rects>
      <tilted>0</tilted></_>
    <_>
      <rects>
        <_>
          10 11 12 6 -1.</_>
        <_>
          10 13 12 2 3.</_></rects>
      <tilted>0</tilted></_>
    <_>
      <rects>
        <_>
          10 12 11 3 -1.</_>
        <_>
          10 13 11 1 3.</_></rects>
      <tilted>0</tilted></_>
    <_>
      <rects>
        <_>
          10 19 9 2 -1.</_>
        <_>
          10 20 9 1 2.</_></rects>
      <tilted>0</tilted></_>
    <_>
      <rects>
        <_>
          11 4 11 3 -1.</_>
        <_>
          11 5 11 1 3.</_></rects>
      <tilted>0</tilted></_>
    <_>
      <rects>
        <_>
          11 7 11 3 -1.</_>
        <_>
          11 8 11 1 3.</_></rects>
      <tilted>0</tilted></_>
    <_>
      <rects>
        <_>
          11 9 1 2 -1.</_>
        <_>
          11 10 1 1 2.</_></rects>
      <tilted>0</tilted></_>
    <_>
      <rects>
        <_>
          11 11 10 3 -1.</_>
        <_>
          11 12 10 1 3.</_></rects>
      <tilted>0</tilted></_>
    <_>
      <rects>
        <_>
          11 20 8 2 -1.</_>
        <_>
          11 21 8 1 2.</_></rects>
      <tilted>0</tilted></_>
    <_>
      <rects>
        <_>
          12 1 5 2 -1.</_>
        <_>
          12 2 5 1 2.</_></rects>
      <tilted>0</tilted></_>
    <_>
      <rects>
        <_>
          12 3 12 21 -1.</_>
        <_>
          16 3 4 21 3.</_></rects>
      <tilted>0</tilted></_>
    <_>
      <rects>
        <_>
          12 4 6 8 -1.</_>
        <_>
          14 4 2 8 3.</_></rects>
      <tilted>0</tilted></_>
    <_>
      <rects>
        <_>
          12 17 10 3 -1.</_>
        <_>
          12 18 10 1 3.</_></rects>
      <tilted>0</tilted></_>
    <_>
      <rects>
        <_>
          13 0 5 3 -1.</_>
        <_>
          13 1 5 1 3.</_></rects>
      <tilted>0</tilted></_>
    <_>
      <rects>
        <_>
          13 3 9 3 -1.</_>
        <_>
          13 4 9 1 3.</_></rects>
      <tilted>0</tilted></_>
    <_>
      <rects>
        <_>
          13 13 8 2 -1.</_>
        <_>
          13 14 8 1 2.</_></rects>
      <tilted>0</tilted></_>
    <_>
      <rects>
        <_>
          14 7 6 3 -1.</_>
        <_>
          16 7 2 3 3.</_></rects>
      <tilted>0</tilted></_>
    <_>
      <rects>
        <_>
          16 0 8 15 -1.</_>
        <_>
          20 0 4 15 2.</_></rects>
      <tilted>0</tilted></_>
    <_>
      <rects>
        <_>
          16 0 8 19 -1.</_>
        <_>
          20 0 4 19 2.</_></rects>
      <tilted>0</tilted></_>
    <_>
      <rects>
        <_>
          16 0 6 3 -1.</_>
        <_>
          16 1 6 1 3.</_></rects>
      <tilted>0</tilted></_>
    <_>
      <rects>
        <_>
          16 0 8 2 -1.</_>
        <_>
          16 1 8 1 2.</_></rects>
      <tilted>0</tilted></_>
    <_>
      <rects>
        <_>
          16 10 8 6 -1.</_>
        <_>
          20 10 4 6 2.</_></rects>
      <tilted>0</tilted></_>
    <_>
      <rects>
        <_>
          16 11 8 8 -1.</_>
        <_>
          20 11 4 8 2.</_></rects>
      <tilted>0</tilted></_>
    <_>
      <rects>
        <_>
          16 14 4 3 -1.</_>
        <_>
          16 15 4 1 3.</_></rects>
      <tilted>0</tilted></_>
    <_>
      <rects>
        <_>
          16 15 4 2 -1.</_>
        <_>
          16 16 4 1 2.</_></rects>
      <tilted>0</tilted></_>
    <_>
      <rects>
        <_>
          16 16 3 2 -1.</_>
        <_>
          16 17 3 1 2.</_></rects>
      <tilted>0</tilted></_>
    <_>
      <rects>
        <_>
          16 20 1 2 -1.</_>
        <_>
          16 21 1 1 2.</_></rects>
      <tilted>0</tilted></_>
    <_>
      <rects>
        <_>
          17 8 6 6 -1.</_>
        <_>
          19 8 2 6 3.</_></rects>
      <tilted>0</tilted></_>
    <_>
      <rects>
        <_>
          18 0 6 9 -1.</_>
        <_>
          21 0 3 9 2.</_></rects>
      <tilted>0</tilted></_>
    <_>
      <rects>
        <_>
          18 0 6 19 -1.</_>
        <_>
          21 0 3 19 2.</_></rects>
      <tilted>0</tilted></_>
    <_>
      <rects>
        <_>
          18 1 6 20 -1.</_>
        <_>
          21 1 3 20 2.</_></rects>
      <tilted>0</tilted></_>
    <_>
      <rects>
        <_>
          18 5 6 19 -1.</_>
        <_>
          21 5 3 19 2.</_></rects>
      <tilted>0</tilted></_>
    <_>
      <rects>
        <_>
          18 9 3 4 -1.</_>
        <_>
          19 9 1 4 3.</_></rects>
      <tilted>0</tilted></_>
    <_>
      <rects>
        <_>
          18 11 6 8 -1.</_>
        <_>
          21 11 3 8 2.</_></rects>
      <tilted>0</tilted></_>
    <_>
      <rects>
        <_>
          18 14 3 2 -1.</_>
        <_>
          18 15 3 1 2.</_></rects>
      <tilted>0</tilted></_>
    <_>
      <rects>
        <_>
          18 15 3 3 -1.</_>
        <_>
          18 16 3 1 3.</_></rects>
      <tilted>0</tilted></_>
    <_>
      <rects>
        <_>
          19 15 1 2 -1.</_>
        <_>
          19 16 1 1 2.</_></rects>
      <tilted>0</tilted></_>
    <_>
      <rects>
        <_>
          19 15 2 6 -1.</_>
        <_>
          19 17 2 2 3.</_></rects>
      <tilted>0</tilted></_>
    <_>
      <rects>
        <_>
          19 16 1 2 -1.</_>
        <_>
          19 17 1 1 2.</_></rects>
      <tilted>0</tilted></_>
    <_>
      <rects>
        <_>
          19 18 1 2 -1.</_>
        <_>
          19 19 1 1 2.</_></rects>
      <tilted>0</tilted></_>
    <_>
      <rects>
        <_>
          20 0 1 2 -1.</_>
        <_>
          20 1 1 1 2.</_></rects>
      <tilted>0</tilted></_>
    <_>
      <rects>
        <_>
          20 1 4 18 -1.</_>
        <_>
          22 1 2 18 2.</_></rects>
      <tilted>0</tilted></_>
    <_>
      <rects>
        <_>
          20 1 4 23 -1.</_>
        <_>
          22 1 2 23 2.</_></rects>
      <tilted>0</tilted></_>
    <_>
      <rects>
        <_>
          20 11 1 2 -1.</_>
        <_>
          20 12 1 1 2.</_></rects>
      <tilted>0</tilted></_>
    <_>
      <rects>
        <_>
          21 0 3 1 -1.</_>
        <_>
          22 0 1 1 3.</_></rects>
      <tilted>0</tilted></_>
    <_>
      <rects>
        <_>
          22 0 2 1 -1.</_>
        <_>
          23 0 1 1 2.</_></rects>
      <tilted>0</tilted></_>
    <_>
      <rects>
        <_>
          23 0 1 10 -1.</_>
        <_>
          23 5 1 5 2.</_></rects>
      <tilted>0</tilted></_>
    <_>
      <rects>
        <_>
          23 0 1 14 -1.</_>
        <_>
          23 7 1 7 2.</_></rects>
      <tilted>0</tilted></_>
    <_>
      <rects>
        <_>
          23 0 1 21 -1.</_>
        <_>
          23 7 1 7 3.</_></rects>
      <tilted>0</tilted></_>
    <_>
      <rects>
        <_>
          23 1 1 10 -1.</_>
        <_>
          23 6 1 5 2.</_></rects>
      <tilted>0</tilted></_>
    <_>
      <rects>
        <_>
          23 1 1 22 -1.</_>
        <_>
          23 12 1 11 2.</_></rects>
      <tilted>0</tilted></_>
    <_>
      <rects>
        <_>
          23 2 1 6 -1.</_>
        <_>
          23 5 1 3 2.</_></rects>
      <tilted>0</tilted></_>
    <_>
      <rects>
        <_>
          23 4 1 10 -1.</_>
        <_>
          23 9 1 5 2.</_></rects>
      <tilted>0</tilted></_>
    <_>
      <rects>
        <_>
          23 4 1 18 -1.</_>
        <_>
          23 10 1 6 3.</_></rects>
      <tilted>0</tilted></_>
    <_>
      <rects>
        <_>
          23 6 1 6 -1.</_>
        <_>
          23 8 1 2 3.</_></rects>
      <tilted>0</tilted></_>
    <_>
      <rects>
        <_>
          23 6 1 9 -1.</_>
        <_>
          23 9 1 3 3.</_></rects>
      <tilted>0</tilted></_>
    <_>
      <rects>
        <_>
          23 8 1 3 -1.</_>
        <_>
          23 9 1 1 3.</_></rects>
      <tilted>0</tilted></_>
    <_>
      <rects>
        <_>
          23 8 1 8 -1.</_>
        <_>
          23 12 1 4 2.</_></rects>
      <tilted>0</tilted></_>
    <_>
      <rects>
        <_>
          23 9 1 8 -1.</_>
        <_>
          23 13 1 4 2.</_></rects>
      <tilted>0</tilted></_>
    <_>
      <rects>
        <_>
          23 10 1 6 -1.</_>
        <_>
          23 12 1 2 3.</_></rects>
      <tilted>0</tilted></_>
    <_>
      <rects>
        <_>
          23 11 1 4 -1.</_>
        <_>
          23 13 1 2 2.</_></rects>
      <tilted>0</tilted></_>
    <_>
      <rects>
        <_>
          23 11 1 6 -1.</_>
        <_>
          23 13 1 2 3.</_></rects>
      <tilted>0</tilted></_>
    <_>
      <rects>
        <_>
          23 11 1 6 -1.</_>
        <_>
          23 14 1 3 2.</_></rects>
      <tilted>0</tilted></_>
    <_>
      <rects>
        <_>
          23 11 1 9 -1.</_>
        <_>
          23 14 1 3 3.</_></rects>
      <tilted>0</tilted></_>
    <_>
      <rects>
        <_>
          23 11 1 8 -1.</_>
        <_>
          23 15 1 4 2.</_></rects>
      <tilted>0</tilted></_>
    <_>
      <rects>
        <_>
          23 11 1 12 -1.</_>
        <_>
          23 15 1 4 3.</_></rects>
      <tilted>0</tilted></_>
    <_>
      <rects>
        <_>
          23 12 1 6 -1.</_>
        <_>
          23 14 1 2 3.</_></rects>
      <tilted>0</tilted></_>
    <_>
      <rects>
        <_>
          23 12 1 8 -1.</_>
        <_>
          23 16 1 4 2.</_></rects>
      <tilted>0</tilted></_>
    <_>
      <rects>
        <_>
          23 13 1 4 -1.</_>
        <_>
          23 15 1 2 2.</_></rects>
      <tilted>0</tilted></_>
    <_>
      <rects>
        <_>
          23 13 1 6 -1.</_>
        <_>
          23 15 1 2 3.</_></rects>
      <tilted>0</tilted></_>
    <_>
      <rects>
        <_>
          23 14 1 3 -1.</_>
        <_>
          23 15 1 1 3.</_></rects>
      <tilted>0</tilted></_>
    <_>
      <rects>
        <_>
          23 14 1 6 -1.</_>
        <_>
          23 16 1 2 3.</_></rects>
      <tilted>0</tilted></_>
    <_>
      <rects>
        <_>
          23 14 1 6 -1.</_>
        <_>
          23 17 1 3 2.</_></rects>
      <tilted>0</tilted></_>
    <_>
      <rects>
        <_>
          23 14 1 8 -1.</_>
        <_>
          23 18 1 4 2.</_></rects>
      <tilted>0</tilted></_>
    <_>
      <rects>
        <_>
          23 15 1 3 -1.</_>
        <_>
          23 16 1 1 3.</_></rects>
      <tilted>0</tilted></_>
    <_>
      <rects>
        <_>
          23 15 1 6 -1.</_>
        <_>
          23 17 1 2 3.</_></rects>
      <tilted>0</tilted></_>
    <_>
      <rects>
        <_>
          23 15 1 6 -1.</_>
        <_>
          23 18 1 3 2.</_></rects>
      <tilted>0</tilted></_>
    <_>
      <rects>
        <_>
          23 16 1 4 -1.</_>
        <_>
          23 18 1 2 2.</_></rects>
      <tilted>0</tilted></_>
    <_>
      <rects>
        <_>
          23 16 1 8 -1.</_>
        <_>
          23 20 1 4 2.</_></rects>
      <tilted>0</tilted></_>
    <_>
      <rects>
        <_>
          23 17 1 4 -1.</_>
        <_>
          23 19 1 2 2.</_></rects>
      <tilted>0</tilted></_>
    <_>
      <rects>
        <_>
          23 18 1 4 -1.</_>
        <_>
          23 20 1 2 2.</_></rects>
      <tilted>0</tilted></_>
    <_>
      <rects>
        <_>
          23 18 1 6 -1.</_>
        <_>
          23 20 1 2 3.</_></rects>
      <tilted>0</tilted></_>
    <_>
      <rects>
        <_>
          23 20 1 4 -1.</_>
        <_>
          23 22 1 2 2.</_></rects>
      <tilted>0</tilted></_></features></cascade>
</opencv_storage>
