<?xml version="1.0"?>
<opencv_storage>
<stage2>
  <maxWeakCount>5</maxWeakCount>
  <stageThreshold>-4.6129164099693298e-01</stageThreshold>
  <weakClassifiers>
    <_>
      <internalNodes>
        0 -1 144302 -3.0423525720834732e-02</internalNodes>
      <leafValues>
        6.1421877145767212e-01 -5.6943023204803467e-01</leafValues></_>
    <_>
      <internalNodes>
        0 -1 48457 6.0668252408504486e-03</internalNodes>
      <leafValues>
        -3.1542629003524780e-01 6.7235487699508667e-01</leafValues></_>
    <_>
      <internalNodes>
        0 -1 3140 1.2596973683685064e-03</internalNodes>
      <leafValues>
        2.3495757579803467e-01 -9.0873622894287109e-01</leafValues></_>
    <_>
      <internalNodes>
        0 -1 2154 -3.9215956348925829e-05</internalNodes>
      <leafValues>
        2.2403490543365479e-01 -8.3220636844635010e-01</leafValues></_>
    <_>
      <internalNodes>
        0 -1 9449 1.9132586894556880e-03</internalNodes>
      <leafValues>
        1.2048506736755371e-01 -9.1319400072097778e-01</leafValues></_></weakClassifiers></stage2>
</opencv_storage>
