<?xml version="1.0"?>
<opencv_storage>
<stage21>
  <maxWeakCount>17</maxWeakCount>
  <stageThreshold>-1.3451715707778931e+00</stageThreshold>
  <weakClassifiers>
    <_>
      <internalNodes>
        0 -1 34511 3.3128744689747691e-04</internalNodes>
      <leafValues>
        -2.5705614686012268e-01 3.5328924655914307e-01</leafValues></_>
    <_>
      <internalNodes>
        0 -1 127594 1.1805992573499680e-02</internalNodes>
      <leafValues>
        -1.2085426598787308e-01 6.3808506727218628e-01</leafValues></_>
    <_>
      <internalNodes>
        0 -1 98054 -4.8014968633651733e-03</internalNodes>
      <leafValues>
        5.4873931407928467e-01 -2.2435617446899414e-01</leafValues></_>
    <_>
      <internalNodes>
        0 -1 162271 8.9410418877378106e-04</internalNodes>
      <leafValues>
        1.2354051321744919e-01 -8.0962181091308594e-01</leafValues></_>
    <_>
      <internalNodes>
        0 -1 59622 3.9541437290608883e-03</internalNodes>
      <leafValues>
        -2.1610037982463837e-01 4.3954011797904968e-01</leafValues></_>
    <_>
      <internalNodes>
        0 -1 157902 -3.5280313342809677e-02</internalNodes>
      <leafValues>
        4.1622051596641541e-01 -2.0371860265731812e-01</leafValues></_>
    <_>
      <internalNodes>
        0 -1 148177 3.7999430787749588e-04</internalNodes>
      <leafValues>
        -2.1848814189434052e-01 4.5874762535095215e-01</leafValues></_>
    <_>
      <internalNodes>
        0 -1 162181 -2.3397238692268729e-05</internalNodes>
      <leafValues>
        1.5459948778152466e-01 -6.2760108709335327e-01</leafValues></_>
    <_>
      <internalNodes>
        0 -1 129733 6.4917840063571930e-03</internalNodes>
      <leafValues>
        -1.8893103301525116e-01 5.1784819364547729e-01</leafValues></_>
    <_>
      <internalNodes>
        0 -1 162112 -1.2199622578918934e-02</internalNodes>
      <leafValues>
        -6.8990546464920044e-01 1.3000923395156860e-01</leafValues></_>
    <_>
      <internalNodes>
        0 -1 13552 7.3191430419683456e-04</internalNodes>
      <leafValues>
        -3.5504060983657837e-01 2.4644504487514496e-01</leafValues></_>
    <_>
      <internalNodes>
        0 -1 57634 -1.0298302769660950e-01</internalNodes>
      <leafValues>
        4.5729243755340576e-01 -1.9532240927219391e-01</leafValues></_>
    <_>
      <internalNodes>
        0 -1 7394 2.0082929730415344e-01</internalNodes>
      <leafValues>
        -1.7185184359550476e-01 7.0722979307174683e-01</leafValues></_>
    <_>
      <internalNodes>
        0 -1 57091 8.3378013223409653e-03</internalNodes>
      <leafValues>
        -1.4213505387306213e-01 5.8647328615188599e-01</leafValues></_>
    <_>
      <internalNodes>
        0 -1 162108 -4.9385438614990562e-05</internalNodes>
      <leafValues>
        1.6369320452213287e-01 -5.8278018236160278e-01</leafValues></_>
    <_>
      <internalNodes>
        0 -1 98251 1.4917891472578049e-02</internalNodes>
      <leafValues>
        -1.3312236964702606e-01 6.9907426834106445e-01</leafValues></_>
    <_>
      <internalNodes>
        0 -1 119555 1.2889863923192024e-02</internalNodes>
      <leafValues>
        -1.4265173673629761e-01 6.1123204231262207e-01</leafValues></_></weakClassifiers></stage21>
</opencv_storage>
