<?xml version="1.0"?>
<opencv_storage>
<stage19>
  <maxWeakCount>19</maxWeakCount>
  <stageThreshold>-1.1507620811462402e+00</stageThreshold>
  <weakClassifiers>
    <_>
      <internalNodes>
        0 -1 162307 -8.5303222294896841e-04</internalNodes>
      <leafValues>
        -7.7607023715972900e-01 1.6644473373889923e-01</leafValues></_>
    <_>
      <internalNodes>
        0 -1 9444 -1.1927306186407804e-03</internalNodes>
      <leafValues>
        -7.5717407464981079e-01 9.7773820161819458e-02</leafValues></_>
    <_>
      <internalNodes>
        0 -1 89753 3.7700654938817024e-03</internalNodes>
      <leafValues>
        -2.4077445268630981e-01 4.2968571186065674e-01</leafValues></_>
    <_>
      <internalNodes>
        0 -1 123185 5.3656734526157379e-02</internalNodes>
      <leafValues>
        -3.2714429497718811e-01 3.1389549374580383e-01</leafValues></_>
    <_>
      <internalNodes>
        0 -1 162290 -4.2869494791375473e-05</internalNodes>
      <leafValues>
        2.1988256275653839e-01 -4.4501122832298279e-01</leafValues></_>
    <_>
      <internalNodes>
        0 -1 162307 8.2999339792877436e-04</internalNodes>
      <leafValues>
        8.9857354760169983e-02 -7.8465139865875244e-01</leafValues></_>
    <_>
      <internalNodes>
        0 -1 14649 2.8325426392257214e-03</internalNodes>
      <leafValues>
        -2.7267566323280334e-01 3.5767105221748352e-01</leafValues></_>
    <_>
      <internalNodes>
        0 -1 1593 5.8347765356302261e-02</internalNodes>
      <leafValues>
        -3.2738232612609863e-01 3.2600021362304688e-01</leafValues></_>
    <_>
      <internalNodes>
        0 -1 31803 1.8784310668706894e-02</internalNodes>
      <leafValues>
        -2.3993773758411407e-01 4.2585429549217224e-01</leafValues></_>
    <_>
      <internalNodes>
        0 -1 57135 1.4689711853861809e-02</internalNodes>
      <leafValues>
        -1.6142360866069794e-01 6.8605417013168335e-01</leafValues></_>
    <_>
      <internalNodes>
        0 -1 162270 -4.4933702156413347e-05</internalNodes>
      <leafValues>
        2.3326757550239563e-01 -4.2266657948493958e-01</leafValues></_>
    <_>
      <internalNodes>
        0 -1 162272 -1.9891057163476944e-03</internalNodes>
      <leafValues>
        -6.6807562112808228e-01 1.5539930760860443e-01</leafValues></_>
    <_>
      <internalNodes>
        0 -1 22631 1.5939604490995407e-02</internalNodes>
      <leafValues>
        -1.8718609213829041e-01 5.2610200643539429e-01</leafValues></_>
    <_>
      <internalNodes>
        0 -1 112463 5.7153839617967606e-02</internalNodes>
      <leafValues>
        -1.5123794972896576e-01 6.8710356950759888e-01</leafValues></_>
    <_>
      <internalNodes>
        0 -1 157601 2.0146908354945481e-04</internalNodes>
      <leafValues>
        -2.3814040422439575e-01 3.8326227664947510e-01</leafValues></_>
    <_>
      <internalNodes>
        0 -1 11495 -4.6970377297839150e-05</internalNodes>
      <leafValues>
        1.9515790045261383e-01 -4.1809889674186707e-01</leafValues></_>
    <_>
      <internalNodes>
        0 -1 8826 2.5301168207079172e-03</internalNodes>
      <leafValues>
        1.1218654364347458e-01 -7.8194892406463623e-01</leafValues></_>
    <_>
      <internalNodes>
        0 -1 118626 2.1308759460225701e-04</internalNodes>
      <leafValues>
        -2.4488614499568939e-01 3.7030634284019470e-01</leafValues></_>
    <_>
      <internalNodes>
        0 -1 72223 -4.3893046677112579e-03</internalNodes>
      <leafValues>
        4.5578366518020630e-01 -1.8792746961116791e-01</leafValues></_></weakClassifiers></stage19>
</opencv_storage>
