<?xml version="1.0"?>
<opencv_storage>
<stage6>
  <maxWeakCount>11</maxWeakCount>
  <stageThreshold>-1.1889173984527588e+00</stageThreshold>
  <weakClassifiers>
    <_>
      <internalNodes>
        0 -1 162233 -5.8486114721745253e-04</internalNodes>
      <leafValues>
        -7.8084290027618408e-01 3.0047574639320374e-01</leafValues></_>
    <_>
      <internalNodes>
        0 -1 162297 4.5570620568469167e-04</internalNodes>
      <leafValues>
        1.3770583271980286e-01 -8.4763616323471069e-01</leafValues></_>
    <_>
      <internalNodes>
        0 -1 69809 5.9659536927938461e-03</internalNodes>
      <leafValues>
        -2.8933605551719666e-01 5.2866792678833008e-01</leafValues></_>
    <_>
      <internalNodes>
        0 -1 162297 -4.6251097228378057e-04</internalNodes>
      <leafValues>
        -7.7820676565170288e-01 2.1399140357971191e-01</leafValues></_>
    <_>
      <internalNodes>
        0 -1 82129 -4.0826597250998020e-03</internalNodes>
      <leafValues>
        5.2420711517333984e-01 -3.5310626029968262e-01</leafValues></_>
    <_>
      <internalNodes>
        0 -1 1264 1.3473518192768097e-02</internalNodes>
      <leafValues>
        -2.9981791973114014e-01 5.0135284662246704e-01</leafValues></_>
    <_>
      <internalNodes>
        0 -1 34882 -9.1686949133872986e-02</internalNodes>
      <leafValues>
        3.9737963676452637e-01 -4.0611931681632996e-01</leafValues></_>
    <_>
      <internalNodes>
        0 -1 50283 4.1207756847143173e-02</internalNodes>
      <leafValues>
        -2.7189037203788757e-01 6.2921947240829468e-01</leafValues></_>
    <_>
      <internalNodes>
        0 -1 4997 -1.7738239839673042e-03</internalNodes>
      <leafValues>
        -8.3395743370056152e-01 2.1535974740982056e-01</leafValues></_>
    <_>
      <internalNodes>
        0 -1 4997 1.7838256899267435e-03</internalNodes>
      <leafValues>
        1.9158694148063660e-01 -8.4277278184890747e-01</leafValues></_>
    <_>
      <internalNodes>
        0 -1 32489 1.3639272190630436e-02</internalNodes>
      <leafValues>
        -2.5885912775993347e-01 6.3803070783615112e-01</leafValues></_></weakClassifiers></stage6>
</opencv_storage>
