<?xml version="1.0"?>
<opencv_storage>
<stage11>
  <maxWeakCount>11</maxWeakCount>
  <stageThreshold>-1.1442030668258667e+00</stageThreshold>
  <weakClassifiers>
    <_>
      <internalNodes>
        0 -1 157897 -3.3694580197334290e-02</internalNodes>
      <leafValues>
        6.2463909387588501e-01 -1.6465863585472107e-01</leafValues></_>
    <_>
      <internalNodes>
        0 -1 162128 -4.6192631998565048e-05</internalNodes>
      <leafValues>
        2.0802278816699982e-01 -6.9467037916183472e-01</leafValues></_>
    <_>
      <internalNodes>
        0 -1 1 -5.2782025886699557e-04</internalNodes>
      <leafValues>
        -8.7362617254257202e-01 1.1449449509382248e-01</leafValues></_>
    <_>
      <internalNodes>
        0 -1 36878 4.7819055616855621e-03</internalNodes>
      <leafValues>
        -3.0233952403068542e-01 4.0780469775199890e-01</leafValues></_>
    <_>
      <internalNodes>
        0 -1 48440 -6.8655312061309814e-03</internalNodes>
      <leafValues>
        5.9416401386260986e-01 -2.5809383392333984e-01</leafValues></_>
    <_>
      <internalNodes>
        0 -1 3 5.4897001245990396e-04</internalNodes>
      <leafValues>
        2.5759249925613403e-01 -7.9531073570251465e-01</leafValues></_>
    <_>
      <internalNodes>
        0 -1 54221 -8.6748190224170685e-03</internalNodes>
      <leafValues>
        4.0758705139160156e-01 -3.5382387042045593e-01</leafValues></_>
    <_>
      <internalNodes>
        0 -1 11891 -4.3639462091960013e-05</internalNodes>
      <leafValues>
        2.8012278676033020e-01 -4.6970796585083008e-01</leafValues></_>
    <_>
      <internalNodes>
        0 -1 10573 1.6518628690391779e-03</internalNodes>
      <leafValues>
        1.8940898776054382e-01 -7.7318650484085083e-01</leafValues></_>
    <_>
      <internalNodes>
        0 -1 13795 2.0828424021601677e-03</internalNodes>
      <leafValues>
        -2.9436719417572021e-01 4.5205914974212646e-01</leafValues></_>
    <_>
      <internalNodes>
        0 -1 39434 2.2109201550483704e-01</internalNodes>
      <leafValues>
        -2.7321347594261169e-01 5.0104200839996338e-01</leafValues></_></weakClassifiers></stage11>
</opencv_storage>
